{"version":"0.5.4","metadata":{"date":{"year":2026,"month":5,"day":7,"hour":17,"minute":28,"second":13},"loudness":-19.342971801757812,"gain":0.8593472545528308,"name":"MRSH JM50LD I Crunch2 FAT CAB","modeled_by":"amalgamaudio","gear_type":"amp_cab","gear_make":"tz-make","gear_model":"tz-model","tone_type":"overdrive","input_level_dbu":15,"output_level_dbu":14,"training":{"settings":{"ignore_checks":false},"data":{"latency":{"manual":null,"calibration":{"algorithm_version":1,"delays":[1542],"safety_factor":1,"recommended":1541,"warnings":{"matches_lookahead":false,"disagreement_too_high":false,"not_detected":false}}},"checks":{"version":3,"passed":true}},"validation_esr":0.009032786712048588}},"architecture":"WaveNet","config":{"layers":[{"input_size":1,"condition_size":1,"head_size":8,"channels":16,"kernel_size":3,"dilations":[1,2,4,8,16,32,64,128,256,512],"activation":"Tanh","gated":false,"head_bias":false},{"input_size":16,"condition_size":1,"head_size":1,"channels":8,"kernel_size":3,"dilations":[1,2,4,8,16,32,64,128,256,512],"activation":"Tanh","gated":false,"head_bias":true}],"head":null,"head_scale":0.02},"weights":[-0.1912749856710434,0.6734368205070496,-1.0334476232528687,-0.9330788850784302,-0.5565860867500305,0.43689027428627014,-0.11985616385936737,0.8892113566398621,-0.20675528049468994,0.3201667368412018,-0.39000436663627625,-0.2717798352241516,-1.013368010520935,-0.6608241200447083,-0.5747495293617249,0.29076912999153137,0.18411502242088318,0.21983276307582855,-0.1797952502965927,-0.2561573386192322,-0.1594134122133255,0.1509697139263153,0.16962778568267822,0.32428109645843506,-0.05525350943207741,0.21040798723697662,0.3439849019050598,-0.16673852503299713,0.10252683609724045,0.1736786812543869,-0.09402938187122345,-0.0549396276473999,-0.2920719087123871,-0.01960873231291771,0.03235999122262001,-0.00949212908744812,-0.1791892647743225,-0.06839343160390854,-0.14759476482868195,0.10240188241004944,0.14645878970623016,0.08508023619651794,-0.034944914281368256,-0.3043300211429596,-0.2934926450252533,-0.022395750507712364,0.26374831795692444,0.27663591504096985,-0.11477097868919373,0.16856299340724945,0.2842635214328766,0.09700265526771545,0.2506866157054901,0.23232008516788483,0.066323421895504,0.10293066501617432,0.23484496772289276,-0.14544469118118286,0.0938522070646286,0.1350831240415573,0.028115494176745415,-0.11259597539901733,-0.25471046566963196,0.11834322661161423,0.033536821603775024,0.014529175125062466,-0.12337467819452286,0.017391696572303772,-0.010333267971873283,0.2011163830757141,-0.09146948158740997,0.05014351010322571,-0.0020535842049866915,0.1385030448436737,0.22814807295799255,0.06729842722415924,0.042119696736335754,-0.02726643718779087,-0.05208142101764679,-0.09542509913444519,-0.22328385710716248,0.20312348008155823,0.06435517966747284,-0.11913881450891495,-0.11276639997959137,-0.043621666729450226,-0.12660612165927887,-0.006708725355565548,0.03528470918536186,-0.02650812827050686,-0.04849202185869217,0.06661971658468246,0.01569320447742939,0.12766076624393463,-0.1362970471382141,-0.005051149521023035,-0.0025800263974815607,0.029933951795101166,-0.030207443982362747,-0.16327469050884247,0.1558617502450943,0.20096759498119354,-0.12105606496334076,-0.020022831857204437,-0.037507314234972,-0.0646410882472992,-0.09508693963289261,-0.014854810200631618,-0.07423745095729828,0.054153334349393845,-0.10530570894479752,0.20026548206806183,-0.02224687673151493,-0.0082483422011137,0.257489413022995,-0.1369318664073944,0.14098668098449707,-0.08381040394306183,0.028174009174108505,-0.14687731862068176,0.13517263531684875,0.018064256757497787,-0.25125259160995483,0.15357302129268646,-0.11525323987007141,-0.2580031752586365,0.06192618981003761,-0.09317384660243988,0.11859524250030518,-0.22013358771800995,0.03482363373041153,-0.11938636749982834,0.09100254625082016,-0.01597612164914608,0.282206654548645,-0.09966062009334564,0.0817919448018074,-0.11738405376672745,0.20005720853805542,0.06123419851064682,0.2893441617488861,-0.023013625293970108,0.15892551839351654,-0.17209722101688385,-0.024146482348442078,-0.03187628835439682,-0.056362222880125046,0.11596769839525223,-0.06427791714668274,-0.29064661264419556,-0.05265010520815849,-0.10917028039693832,-0.2031177580356598,0.16804969310760498,0.09552197903394699,-0.31206631660461426,0.1829262226819992,-0.19910523295402527,0.1025746688246727,-0.21967749297618866,0.050459034740924835,0.1570209413766861,-0.3748781979084015,-0.2508988082408905,-0.24898946285247803,0.17326965928077698,0.06844724714756012,0.28309503197669983,-0.2919991612434387,0.12154132127761841,0.35613512992858887,-0.22628504037857056,0.25027209520339966,0.27458813786506653,-0.31112948060035706,-0.026552539318799973,-0.23329521715641022,0.12072987109422684,0.19193439185619354,0.08081426471471786,-0.24848274886608124,-0.16064538061618805,-0.12343127280473709,0.2074168473482132,0.132867693901062,0.21448417007923126,-0.2756618857383728,-0.13779288530349731,-0.3194179832935333,0.2739177346229553,0.22994400560855865,0.306928426027298,-0.29029732942581177,0.11079013347625732,0.10239045321941376,-0.27695438265800476,0.047139402478933334,0.27697575092315674,-0.25074711441993713,0.12200774997472763,0.22780773043632507,-0.07767240703105927,0.016272610053420067,0.12256547808647156,-0.2584327459335327,0.03068525344133377,-0.23172108829021454,0.36209458112716675,0.06122058257460594,0.18471379578113556,-0.096038319170475,-0.08478356152772903,-0.19390584528446198,0.008925861679017544,0.06303233653306961,0.23598934710025787,-0.1458059847354889,-0.014177544042468071,0.33220160007476807,-0.15550178289413452,0.03829280287027359,0.34992262721061707,0.002705950289964676,-0.04541393741965294,-0.3305002748966217,0.12380479276180267,-0.07955361902713776,0.1362968236207962,-0.1446058452129364,-0.08197969198226929,-0.2117345631122589,0.15868191421031952,0.015616592019796371,0.2739090025424957,-0.020477214828133583,-0.1288750171661377,-0.12111826986074448,-0.0345802903175354,-0.014138443395495415,0.23898263275623322,-0.011441108770668507,0.14379684627056122,0.14292855560779572,-0.06431856006383896,0.1358853429555893,0.07463520020246506,0.06687887758016586,-0.06266617774963379,0.21054869890213013,-0.06786444038152695,-0.021252619102597237,0.22756126523017883,0.07485086470842361,-0.04164281487464905,-0.2537109851837158,0.04107683524489403,-0.13953807950019836,-0.02945861779153347,-0.06932304799556732,-0.0459018275141716,0.06624273955821991,0.15000654757022858,0.021906767040491104,-0.04234103113412857,-0.022841960191726685,-0.10306458920240402,-0.19313004612922668,-0.028803626075387,0.07389998435974121,-0.1079646646976471,-0.1308138370513916,-0.0268420297652483,0.001816143048927188,0.08548414707183838,-0.07451343536376953,-0.2267696112394333,0.1491290181875229,-0.037628211081027985,0.13503333926200867,0.11292648315429688,-0.002339407801628113,-0.18366964161396027,-0.11950013786554337,0.154699444770813,0.15313562750816345,0.16773387789726257,-0.09317366778850555,-0.09349461644887924,-0.08699353039264679,-0.03813181817531586,-0.21675452589988708,0.00590764032676816,-0.011416586115956306,-0.15561822056770325,-0.10573607683181763,-0.14248931407928467,-0.048022057861089706,-0.17553982138633728,0.01243639551103115,-0.195010706782341,-0.1338406801223755,0.009075802750885487,0.02530241385102272,0.03798794373869896,-0.018429210409522057,-0.5416613817214966,-0.049033038318157196,0.1698545664548874,0.5179315805435181,0.0946015790104866,-0.23514480888843536,-0.4853016436100006,-0.07035151869058609,-0.1643124520778656,-0.4068893790245056,-0.01820710487663746,-0.18770593404769897,-0.4665929675102234,-0.05483812466263771,0.11451543867588043,0.471719890832901,0.12656916677951813,-0.15271033346652985,-0.413421094417572,0.08186754584312439,0.23770885169506073,0.5412049889564514,0.13322000205516815,0.011233008466660976,-0.49410879611968994,-0.20218878984451294,-0.027614900842308998,0.5885716676712036,0.19451414048671722,-0.2008320838212967,-0.395691841840744,-0.0028562743682414293,0.04021642357110977,-0.33216166496276855,0.0035158577375113964,-0.14132024347782135,-0.5062987804412842,0.004108619876205921,-0.025738941505551338,-0.541161835193634,0.015208077616989613,-0.04429373890161514,-0.38528507947921753,-0.20626042783260345,0.10546485334634781,0.39974552392959595,0.18263587355613708,-0.06385746598243713,0.025978893041610718,-0.03366784378886223,0.1624356210231781,0.044557951390743256,0.18349140882492065,-0.20696485042572021,-0.06389825791120529,-0.21311721205711365,-0.24636468291282654,-0.21184541285037994,-0.0009299296652898192,-0.0189820509403944,0.04568491876125336,0.006979938596487045,-0.038767244666814804,-0.016408678144216537,0.07769123464822769,-0.13023890554904938,0.07246509194374084,-0.16550970077514648,0.03389199450612068,-0.04316706210374832,0.03270796313881874,0.06971314549446106,0.07513317465782166,0.03884415701031685,0.19734734296798706,0.20545178651809692,0.058943115174770355,-0.027136553078889847,0.04718489944934845,-0.051378730684518814,0.06339026987552643,0.0007620571414008737,-0.003953508101403713,-0.1555434614419937,-0.02791830711066723,-0.09924248605966568,-0.13458898663520813,-0.17403382062911987,-0.19186802208423615,-0.21007920801639557,0.0068419151939451694,-0.006652018986642361,0.03330427408218384,-0.04629053920507431,0.17711839079856873,0.21998846530914307,-0.1849609762430191,0.030825180932879448,0.05272185802459717,0.29387444257736206,-0.14207330346107483,0.2136053442955017,-0.1289309710264206,-0.03026909939944744,0.1562737375497818,-0.32094061374664307,0.004672308452427387,0.20954853296279907,-0.22640158236026764,-0.06411081552505493,-0.13722270727157593,0.187229722738266,-0.07244411110877991,0.1317189335823059,-0.07026053220033646,0.12490590661764145,-0.16338306665420532,0.2444836050271988,0.041846856474876404,0.20149773359298706,-0.30047672986984253,0.08269309997558594,-0.1996309608221054,0.15173693001270294,-0.0023397356271743774,-0.016279393807053566,-0.16755962371826172,0.16951267421245575,0.10875096172094345,-0.3088606894016266,0.007263499777764082,0.10447973757982254,-0.34821343421936035,0.0968690738081932,-0.05397156625986099,-0.3710455000400543,-0.10864738374948502,0.05418655648827553,-0.13438527286052704,-0.10169564187526703,-0.020933784544467926,0.14181354641914368,-0.04806186258792877,0.010618955828249454,-0.38583695888519287,0.273629754781723,0.12285339832305908,0.454630047082901,-0.02725207433104515,-0.14532345533370972,-0.1990227997303009,0.10299042612314224,0.018270617350935936,-0.4312480688095093,0.05632013455033302,-0.18350596725940704,-0.37000569701194763,0.1364641934633255,-0.07663056254386902,0.3490157723426819,-0.03334765508770943,0.027956878766417503,-0.3466038107872009,0.06963954865932465,0.005792779382318258,0.3752179443836212,0.045596156269311905,0.08487144857645035,-0.25100022554397583,0.1932886689901352,-0.10872431844472885,0.1643858700990677,-0.048847973346710205,-0.11661887913942337,-0.2222016155719757,0.013285980559885502,-0.09875035285949707,-0.4087757170200348,0.19212856888771057,-0.06655652076005936,-0.20184531807899475,0.18363220989704132,0.0323859304189682,-0.3010426163673401,0.053534165024757385,-0.07372717559337616,-0.2928849458694458,0.1759461611509323,-0.10605993121862411,0.4156971871852875,-0.16847430169582367,-0.24610842764377594,-0.18138401210308075,0.5252894759178162,0.30625107884407043,-0.00048032018821686506,-0.2569533884525299,-0.10515007376670837,-0.043234650045633316,0.483293354511261,-0.2502543032169342,-0.08403392136096954,0.42265820503234863,-0.2191803902387619,-0.08630863577127457,0.3203528821468353,0.26150983572006226,0.09326840937137604,-0.416666716337204,-0.10057534277439117,-0.07206027209758759,0.323761522769928,0.1825571358203888,0.2110234946012497,-0.3768104016780853,-0.13097651302814484,-0.19348780810832977,0.38046327233314514,0.06431779265403748,0.044389549642801285,-0.43509018421173096,-0.03125467151403427,-0.163273423910141,0.3645135760307312,-0.24582034349441528,0.005994765553623438,0.494914174079895,-0.27913129329681396,-0.2442350536584854,0.25169286131858826,-0.17125308513641357,-0.16626229882240295,0.26297616958618164,-0.22781258821487427,-0.10284552723169327,0.28687262535095215,0.2069956511259079,0.09302765130996704,-0.44897186756134033,0.05770041421055794,0.09177601337432861,0.044324591755867004,-0.06342265009880066,-0.06147445738315582,-0.03280576318502426,-0.06238389015197754,-0.12758894264698029,0.3228064775466919,-0.01682976447045803,0.03811337798833847,0.16544346511363983,0.03373536840081215,-0.02899767830967903,0.2604239284992218,-0.05420168861746788,-0.13640539348125458,-0.2470577210187912,-0.03611374646425247,0.021875591948628426,0.00589747866615653,0.06095530465245247,-0.04217171296477318,-0.2028394192457199,0.13049964606761932,0.00867912732064724,0.22658869624137878,0.027172314003109932,-0.030559267848730087,-0.24786536395549774,0.05405232310295105,0.11547750979661942,0.11296581476926804,-0.08344224840402603,0.046318698674440384,0.29172027111053467,0.03484145924448967,-0.10824751108884811,0.04718777537345886,0.10755439847707748,-0.00539012486115098,0.09902166575193405,0.09505084156990051,0.05686764791607857,0.2844858169555664,0.10464327782392502,0.03135083615779877,-0.23747889697551727,-0.087589330971241,-0.02998030185699463,0.2594738304615021,0.01197870820760727,0.016867564991116524,-0.05504356697201729,0.18640442192554474,-0.00913776084780693,0.0637507438659668,-0.0037658684886991978,-0.2395700067281723,0.326534241437912,-0.011131254024803638,-0.2101641744375229,0.26533448696136475,-0.11067159473896027,0.07844620198011398,-0.19783402979373932,0.02318611554801464,-0.2918592095375061,0.32954224944114685,-0.11510355770587921,0.18913470208644867,-0.06340677291154861,0.10196194052696228,-0.14137189090251923,0.2922596335411072,-0.02715444192290306,0.07617440074682236,-0.050063442438840866,0.08115467429161072,-0.28339341282844543,0.14462541043758392,-0.05747326463460922,-0.02648780681192875,0.1595163643360138,-0.08032002300024033,-0.1467566192150116,0.2788597345352173,0.08584661036729813,-0.09412948042154312,0.1988920271396637,0.10201524943113327,-0.1782269924879074,0.13021783530712128,-0.1871303915977478,0.04697971045970917,-0.12610188126564026,-0.2542678117752075,0.13531453907489777,0.036792319267988205,0.12952405214309692,-0.25413790345191956,0.08107773214578629,-0.19919438660144806,0.28294074535369873,-0.04768483713269234,-0.14949201047420502,0.24287523329257965,0.0036741760559380054,-0.005775123368948698,0.05732395499944687,-0.06901038438081741,0.0625339224934578,-0.1280246526002884,0.08632976561784744,-0.23581311106681824,0.1716226041316986,-0.055882714688777924,0.08149665594100952,-0.057891011238098145,-0.17443035542964935,-0.1491810828447342,0.23830300569534302,-0.03517438471317291,0.24077032506465912,-0.18803894519805908,0.0771588459610939,-0.2626306116580963,0.1294088363647461,0.020212823525071144,-0.09134868532419205,0.1963522583246231,0.14225873351097107,-0.13334183394908905,0.15940074622631073,0.16283303499221802,-0.1547616720199585,0.28647899627685547,-0.03868511691689491,-0.13868065178394318,0.1493973284959793,0.12070029228925705,0.2849353849887848,-0.13266350328922272,-0.12647801637649536,0.24637536704540253,-0.07849545031785965,0.0422702394425869,-0.21616049110889435,0.25229546427726746,0.21831396222114563,0.13403303921222687,-0.29889246821403503,0.005255802068859339,0.014332972466945648,-0.13057048618793488,-0.06752016395330429,0.06909774988889694,-0.10542381554841995,-0.20725078880786896,-0.10197180509567261,0.05891673266887665,0.05492965504527092,0.20435316860675812,-0.0037361313588917255,-0.06820721179246902,-0.02616117335855961,0.1441589742898941,0.018284253776073456,0.050706323236227036,-0.22463659942150116,0.14991308748722076,-0.17201724648475647,0.14679217338562012,0.0981830507516861,0.22681866586208344,-0.02447274886071682,0.04968678206205368,0.04027508571743965,-0.16024623811244965,-0.1384902149438858,0.03529302775859833,-0.1293357014656067,0.04720677062869072,0.006388679146766663,-0.07029754668474197,-0.15503829717636108,0.1034485325217247,-0.041460227221250534,-0.11566022038459778,-0.19308863580226898,0.01632244512438774,0.16378314793109894,0.12204478681087494,-0.19176670908927917,-0.09020150452852249,-0.1910436600446701,0.0277180727571249,0.19751673936843872,0.20214109122753143,-0.18658415973186493,-0.1272059828042984,0.20919950306415558,-0.04949122294783592,-0.2683214545249939,0.07712560892105103,-0.18652121722698212,-0.3036786913871765,-0.09871235489845276,0.23908862471580505,0.2982487082481384,0.15505032241344452,-0.04955384135246277,-0.18484623730182648,0.02608663961291313,0.08520602434873581,0.09183180332183838,0.14089025557041168,-0.001541554811410606,-0.26182642579078674,0.035803359001874924,0.17965379357337952,0.07285929471254349,0.05980209633708,-0.008395863696932793,-0.2895406186580658,0.062473114579916,-0.07578859478235245,-0.29446905851364136,0.16074220836162567,-0.07145850360393524,-0.10392758995294571,-0.00823913887143135,0.001415371079929173,-0.2738528251647949,0.23761318624019623,-0.2780527174472809,-0.3163471817970276,-0.06853698194026947,0.10212953388690948,0.14950379729270935,0.0435917042195797,0.014828193001449108,-0.08111632615327835,-0.11787723004817963,0.045736171305179596,-0.10892105102539062,-0.10004087537527084,-0.06710562109947205,0.025275828316807747,0.048221152275800705,-0.059752028435468674,0.11832541972398758,-0.01568887010216713,-0.04044247046113014,0.02638285979628563,-0.0687493309378624,0.46763524413108826,-0.3770908713340759,0.7269678711891174,-0.549713671207428,0.02903970330953598,0.9825999140739441,1.110565423965454,-0.4553073048591614,0.1644044816493988,0.031841397285461426,-0.8299257755279541,-0.5333960652351379,0.08072841912508011,-0.7701271176338196,0.2659853398799896,0.6341673731803894,0.043792083859443665,0.18543651700019836,-0.049495622515678406,0.2459336519241333,0.3167230486869812,-0.027390485629439354,0.2341948300600052,-0.05855926498770714,-0.06937263906002045,-0.15610764920711517,-0.04686509817838669,-0.1627427041530609,-0.04086849465966225,0.01618896797299385,0.1660420298576355,-0.01242147758603096,0.4572128653526306,0.08456233143806458,-0.3296099901199341,0.29321691393852234,0.42785659432411194,-0.07842228561639786,-0.2769717872142792,-0.31681832671165466,-0.09676069766283035,-0.12466618418693542,-0.607936441898346,0.01499765645712614,-0.16759425401687622,-0.1405920833349228,0.007034345995634794,0.17495107650756836,0.1828453540802002,0.1672651618719101,-0.14093676209449768,0.3354839086532593,0.10028555244207382,-0.2545638382434845,0.11731350421905518,-0.3342418670654297,-0.1889360249042511,-0.300747811794281,0.2716311514377594,-0.10520968586206436,0.05607801303267479,0.4430558681488037,-0.1015184298157692,-0.1493627429008484,0.2525305151939392,-0.044301338493824005,-0.13809771835803986,-0.042068962007761,0.07268133759498596,-0.04557301104068756,0.03448587283492088,-0.07530084252357483,-0.3116048574447632,-0.07883938401937485,0.14795899391174316,0.07397905737161636,0.2063818722963333,0.34443071484565735,-0.25719383358955383,-0.15701399743556976,-0.06338424980640411,-0.1820608526468277,-0.21565623581409454,0.22470180690288544,0.13656757771968842,0.053710490465164185,0.2474258989095688,-0.23503179848194122,-0.04097158834338188,0.18134088814258575,0.06333395838737488,0.26857927441596985,0.07309234887361526,0.2568748891353607,-0.12771961092948914,-0.011582611128687859,-0.26856592297554016,-0.11216539144515991,0.22728055715560913,-0.038237325847148895,0.09396795928478241,0.3788805902004242,0.3283774256706238,0.17442673444747925,0.2838800251483917,0.08294855803251266,-0.3625447750091553,-0.1634196639060974,-0.019249016419053078,-0.2758493423461914,0.19739705324172974,0.20761515200138092,0.3902813494205475,0.2414594441652298,-0.04895057529211044,0.42743176221847534,0.2134438455104828,-0.4029074013233185,0.0033995986450463533,-0.2689560353755951,-0.09510873258113861,-0.5838180780410767,-0.18353691697120667,0.32554152607917786,0.15278907120227814,0.0025369294453412294,-0.12901799380779266,-0.35699453949928284,0.17773328721523285,0.050088539719581604,0.31422117352485657,-0.2615620791912079,-0.2929938733577728,0.1960512399673462,0.2612944543361664,0.12335995584726334,0.19148144125938416,-0.14198745787143707,-0.011946780607104301,-0.18713879585266113,-0.0017430671723559499,-0.22064194083213806,-0.0732332095503807,0.12900890409946442,-0.38763999938964844,-0.08831046521663666,-0.1848665177822113,-0.3917822241783142,-0.0075408294796943665,-0.16137808561325073,-0.06536327302455902,0.027523713186383247,-0.13178840279579163,-0.04245505481958389,0.9149773716926575,0.24725700914859772,0.2748856544494629,-0.045563552528619766,-0.015748457983136177,-0.12890499830245972,-0.3597360849380493,-0.1046675518155098,0.40278342366218567,-0.412017285823822,-0.4632554352283478,0.1549302190542221,0.3716358244419098,-0.038620829582214355,0.2524428963661194,0.4706569015979767,-0.11420881003141403,0.020144546404480934,0.23794671893119812,-0.056295718997716904,0.03591300547122955,0.20963121950626373,0.18015056848526,0.21805934607982635,-0.31242913007736206,0.23264546692371368,0.032849185168743134,-0.24313853681087494,0.20662550628185272,-0.11345204710960388,-0.03424760699272156,-0.25247424840927124,-0.13410864770412445,-0.041463181376457214,-0.16954638063907623,0.21244890987873077,-0.02417062781751156,0.14370271563529968,0.015258694998919964,-0.04617433622479439,0.13033556938171387,0.060456227511167526,0.034554120153188705,-0.15294769406318665,-0.09328873455524445,0.011195682920515537,-0.013095613569021225,-0.241301029920578,0.3672253489494324,-0.21488849818706512,0.04124852642416954,0.2284626066684723,-0.12985138595104218,-0.2369030863046646,-0.03631926327943802,-0.06716262549161911,0.14367857575416565,0.11711964756250381,-0.014530464075505733,-0.08123425394296646,-0.001149231567978859,0.17639778554439545,0.28796181082725525,0.012035260908305645,-0.4111863374710083,-0.11372610926628113,0.1768883466720581,-0.2618614435195923,0.06183447316288948,0.2595014274120331,0.09838937222957611,-0.11670055240392685,-0.18430757522583008,0.3537886142730713,0.02614223212003708,0.23837769031524658,0.4733343720436096,0.007440253626555204,-0.17468391358852386,-0.2226082980632782,-0.01055875327438116,-0.04336044564843178,-0.09474967420101166,0.03201588615775108,-0.22760020196437836,0.21205680072307587,-0.18584337830543518,0.22375093400478363,-0.10918179154396057,-0.1549616903066635,0.1052766665816307,-0.06947292387485504,0.3221428692340851,0.14983874559402466,-0.3516230881214142,0.11184212565422058,0.35352790355682373,0.045543793588876724,0.06347543746232986,0.33625271916389465,-0.25440990924835205,-0.167925164103508,0.20272323489189148,0.0021088772919028997,0.026037907227873802,0.06919114291667938,0.12379699945449829,0.35837236046791077,-0.0793805867433548,0.4301958978176117,-0.32492297887802124,-0.3324647843837738,-0.7973119616508484,-0.378706693649292,-0.6062135100364685,0.24354331195354462,-0.0732152983546257,0.11629236489534378,0.09919349104166031,-0.07050031423568726,0.3427882492542267,-0.15231424570083618,-0.18190403282642365,-0.09944447875022888,0.2071366012096405,-0.0322255976498127,0.06527242064476013,-0.11450900882482529,0.17751260101795197,-0.08442714810371399,0.039264556020498276,0.07310470193624496,0.07664526998996735,-0.0775025337934494,-0.18313956260681152,-0.27430158853530884,-0.04411507770419121,0.02271265722811222,-0.28058743476867676,0.2703271210193634,-0.11017873138189316,-0.31519174575805664,0.15124282240867615,-0.11050941795110703,-0.14701125025749207,0.16925595700740814,-0.051698651164770126,-0.05720965936779976,0.05058456212282181,0.08524363487958908,0.14711721241474152,-0.2042594701051712,-0.12342578172683716,-0.4136190712451935,0.1550724357366562,0.03136315569281578,0.16614598035812378,-0.4316120147705078,0.2409810721874237,-0.10453169047832489,0.15140527486801147,-0.11795318871736526,0.3490685522556305,-0.33999940752983093,-0.20942987501621246,-0.37116003036499023,0.1728682518005371,-0.004346620757132769,-0.27363768219947815,0.1829228401184082,-0.18606959283351898,0.32477861642837524,-0.1782974749803543,-0.1372896283864975,0.09475930035114288,-0.2670058012008667,0.25466832518577576,-0.06663398444652557,0.12104859203100204,-0.18099895119667053,0.12431671470403671,-0.05992712453007698,-0.039669498801231384,-0.201786071062088,0.01058282982558012,0.2567210793495178,-0.02976076677441597,-0.05399322882294655,0.03759688884019852,-0.27665725350379944,0.1823796182870865,-0.05612200126051903,-0.1833132654428482,-0.0630088597536087,-0.2152656465768814,-0.323958158493042,-0.10362885147333145,-0.3402080535888672,0.09669956564903259,-0.14894999563694,0.36124688386917114,-0.27335163950920105,-0.13237355649471283,-0.02723318338394165,0.1957695335149765,-0.07261043041944504,0.07792425155639648,-0.18940407037734985,0.0792970210313797,-0.18334047496318817,0.2837250232696533,-0.14026571810245514,0.23790214955806732,-0.24597617983818054,-0.04893171042203903,0.08937197923660278,-0.2558537721633911,0.1955694705247879,-0.19018328189849854,-0.07428345084190369,0.3239209055900574,-0.40351399779319763,-0.1601547747850418,-0.1562226563692093,-0.22354543209075928,-0.39977526664733887,-0.06798756867647171,-0.13013486564159393,0.24516661465168,-0.2664976119995117,-0.21970783174037933,-0.2967655062675476,-0.25065484642982483,0.31958648562431335,0.1814499795436859,0.04360191151499748,-0.1484752744436264,-0.16811038553714752,-0.0485307015478611,0.21074840426445007,-0.03182156756520271,-0.02383340708911419,0.16080471873283386,-0.0009448701166547835,0.07245894521474838,-0.10203179717063904,0.22418798506259918,0.03207312151789665,0.09080220758914948,-0.2590556740760803,-0.14223293960094452,-0.12782785296440125,0.00527994753792882,0.005584043450653553,0.12830986082553864,-0.3445955514907837,-0.1329614818096161,-0.10888304561376572,0.3009258508682251,-0.09287043660879135,-0.15034803748130798,-0.3711526691913605,0.06646107882261276,0.3442378342151642,-0.17075271904468536,0.13104213774204254,-0.10509343445301056,0.09961828589439392,0.30014196038246155,-0.38252854347229004,-0.29237645864486694,-0.25240999460220337,-0.21925127506256104,-0.21658091247081757,-0.13293033838272095,-0.2868294417858124,0.1239980086684227,0.18258577585220337,-0.04880281910300255,0.04444711282849312,-0.009172501042485237,-0.26618626713752747,0.2967640459537506,0.06945058703422546,0.013138893060386181,0.023730363696813583,-0.22778183221817017,0.06721717864274979,0.23262086510658264,-0.10831009596586227,0.19352376461029053,-0.005724414251744747,0.1201353594660759,0.09568482637405396,-0.1503089964389801,0.13678902387619019,-0.09119121730327606,0.2986539602279663,0.08573921769857407,-0.05924206227064133,-0.21503543853759766,0.19487108290195465,-0.24754202365875244,-0.08201951533555984,-0.010061359032988548,0.37546300888061523,-0.40663838386535645,0.10286317020654678,-0.002483019372448325,0.24435599148273468,-0.07959294319152832,-0.15009336173534393,0.22151945531368256,0.11160433292388916,0.23046675324440002,-0.13265827298164368,-0.36648029088974,0.3160471022129059,-0.1316559910774231,-0.03184361755847931,0.022234564647078514,-0.0013357222778722644,0.25392693281173706,0.1925266683101654,0.027050785720348358,-0.007692090235650539,-0.1385808289051056,-0.10481029003858566,-0.12416165322065353,0.19146396219730377,0.19323182106018066,0.15326936542987823,-0.21480487287044525,-0.0694652646780014,-0.11054715514183044,-0.07833794504404068,0.11418549716472626,0.18973064422607422,0.04223621264100075,0.044762544333934784,-0.08616496622562408,-0.10615751147270203,0.12378309667110443,-0.1929818093776703,0.056479036808013916,-0.1469859629869461,0.03695239871740341,0.0072840736247599125,0.0939842015504837,-0.04476144164800644,0.042551010847091675,-0.08133933693170547,-0.023175064474344254,-0.034322649240493774,0.04972296953201294,-0.003575357375666499,0.07983565330505371,-0.14500372111797333,0.07430395483970642,-0.02429785579442978,-0.01064209919422865,0.1920330822467804,-0.06752786040306091,-0.11707288771867752,0.28610217571258545,-0.18765869736671448,-0.1860445886850357,-0.17412935197353363,-0.11735719442367554,-0.19587920606136322,-0.19371625781059265,-0.009435884654521942,-0.03935873135924339,-0.036061618477106094,-0.14967039227485657,-0.1303296834230423,0.031602345407009125,-0.3415028750896454,-0.005965282674878836,0.13433577120304108,-0.08552812784910202,0.08049406111240387,0.030254781246185303,-0.0001838535681599751,0.21841967105865479,0.09540579468011856,0.011284379288554192,0.18732254207134247,0.1316206008195877,0.20571133494377136,-0.21025310456752777,0.04122455418109894,-0.009119892492890358,-0.17202448844909668,-0.070877805352211,0.17347970604896545,-0.23194576799869537,0.15691670775413513,0.11005458980798721,0.31785717606544495,-0.05617817863821983,0.26382410526275635,-0.17180609703063965,-0.08153800666332245,-0.043453797698020935,0.15018215775489807,0.11618451029062271,0.10419586300849915,0.1226654201745987,-0.00819722656160593,0.14815618097782135,0.33348363637924194,-0.14239373803138733,0.1133609190583229,-0.07896079868078232,0.17555369436740875,0.017092250287532806,0.270725816488266,-0.20149962604045868,0.04785817116498947,-0.05134191736578941,0.13511396944522858,-0.045152608305215836,0.009631071239709854,-0.017343811690807343,0.2448853701353073,0.2553689181804657,0.047235533595085144,0.04267418757081032,-0.25665611028671265,0.10155806690454483,0.22376829385757446,-0.16483882069587708,-0.03903546929359436,-0.05618983134627342,0.04780452325940132,-0.0961359292268753,-0.04826313629746437,0.3121250569820404,0.06358326971530914,0.2274562269449234,-0.13326109945774078,0.09389706701040268,-0.18872620165348053,0.2863559424877167,-0.05732768774032593,0.2460896372795105,-0.38987603783607483,-0.11785582453012466,-0.12669594585895538,0.2240656316280365,-0.024781662970781326,0.18966273963451385,-0.2613877058029175,0.07727174460887909,0.1759742945432663,-0.21754014492034912,0.07222330570220947,0.1716633290052414,0.09977193176746368,0.17509594559669495,-0.2638431787490845,0.04083315283060074,-0.15366192162036896,-0.07207748293876648,-0.3436383903026581,-0.09429355710744858,-0.41716089844703674,0.11167056113481522,0.08667097240686417,0.19530034065246582,0.34025633335113525,0.2466314733028412,0.319730281829834,0.036242518573999405,0.06376580893993378,-0.13176457583904266,-0.21418440341949463,0.1552726775407791,-0.10482839494943619,-0.3163721263408661,-0.08699975162744522,-0.17144732177257538,-0.34935611486434937,-0.3645901083946228,0.14949311316013336,0.15468285977840424,-0.10522457212209702,0.09997283667325974,-0.21991783380508423,0.08732660859823227,0.022749844938516617,0.12008941918611526,-0.11016352474689484,0.08569049090147018,-0.3538941740989685,0.1876704841852188,0.005009732209146023,0.2396421581506729,-0.1811417192220688,0.3116317689418793,-0.12466922402381897,0.12334093451499939,-0.1211177408695221,-0.3060951828956604,0.06426854431629181,-0.28144970536231995,0.030061015859246254,-0.009851251728832722,0.10649248212575912,0.30487269163131714,-0.044219229370355606,0.003198209684342146,-0.33321884274482727,-0.023385463282465935,-0.0003688682336360216,0.3890591263771057,0.20728297531604767,0.3906574845314026,0.21094831824302673,0.039362162351608276,0.07779961824417114,-0.13588187098503113,-0.21190130710601807,0.36949992179870605,-0.1211123913526535,0.15921686589717865,0.1993526816368103,-0.17341691255569458,-0.17134128510951996,0.10508455336093903,-0.005922510754317045,-0.04373430088162422,-0.26521962881088257,0.3793129324913025,-0.0026209866628050804,0.37318459153175354,-0.035624317824840546,-0.00809427909553051,-0.27550217509269714,0.15650343894958496,0.08050847798585892,0.047029219567775726,-0.27813485264778137,0.12517541646957397,-0.2591799199581146,0.24212396144866943,-0.04224511608481407,0.2828465700149536,-0.19675326347351074,-0.04700857028365135,0.13540220260620117,-0.21072277426719666,0.17075702548027039,0.07910193502902985,0.16699333488941193,0.34970417618751526,-0.08334384858608246,-0.0067718843929469585,0.013536152429878712,0.012761884368956089,-0.2945149540901184,0.08672850579023361,-0.26287564635276794,0.20228897035121918,-0.07382385432720184,0.29202547669410706,0.19447223842144012,0.01969505101442337,0.23929986357688904,0.4307836890220642,-0.10514166206121445,0.13205833733081818,0.060624007135629654,-0.48453858494758606,0.28524279594421387,0.2294580042362213,-0.23784303665161133,0.3646538257598877,0.13187874853610992,0.1528409719467163,-0.34669163823127747,-0.1106482669711113,0.5845566987991333,0.3523288071155548,0.1379619985818863,-0.295829176902771,-0.3910364806652069,-0.05217788368463516,0.617033064365387,-0.015066572465002537,-0.07504449039697647,-0.8288760185241699,-0.34798139333724976,-0.2796922028064728,0.5717503428459167,0.23025767505168915,0.2463875114917755,-0.2747698128223419,0.18362957239151,0.015630578622221947,-0.2596903145313263,-0.01739245094358921,-0.15496139228343964,0.07862620800733566,0.07283513993024826,0.12855932116508484,0.3433801233768463,0.20111171901226044,-0.2137581706047058,-0.18957214057445526,-0.23144292831420898,0.10702453553676605,0.24565862119197845,0.1110871285200119,0.34305983781814575,0.15930767357349396,-0.21670697629451752,-0.09491529315710068,-0.26192784309387207,0.36799606680870056,0.33473333716392517,0.1697409451007843,-0.1761661320924759,-0.06763709336519241,-0.12648305296897888,-0.09636887907981873,-0.03867628425359726,-0.17320328950881958,-0.01101783849298954,-0.031310372054576874,0.1534019261598587,0.1250150501728058,0.19755114614963531,0.14240185916423798,-0.044517163187265396,0.05230605974793434,0.26156485080718994,-0.047939714044332504,0.1613878458738327,0.00604267418384552,-0.16950756311416626,-0.27097088098526,0.016352610662579536,0.20218218863010406,0.1283780187368393,-0.060743335634469986,0.03679150342941284,0.10281980037689209,-0.19870038330554962,0.26255369186401367,0.19855304062366486,-0.0632362961769104,0.14439943432807922,0.16489289700984955,0.25582507252693176,0.23666596412658691,0.45325931906700134,0.032024726271629333,-0.24123777449131012,-0.4307335317134857,-0.12925921380519867,0.04083877056837082,-0.1718425750732422,-0.14454783499240875,-0.03021739423274994,-0.5041001439094543,-0.025704896077513695,-0.009060289710760117,0.008998360484838486,0.06916291266679764,0.153511181473732,-0.0924447774887085,-0.019793206825852394,0.09876907616853714,0.09604007750749588,-0.19683319330215454,-0.1117328405380249,0.3939998745918274,0.0698893815279007,0.06889453530311584,-0.3231089413166046,0.16222181916236877,0.012836056761443615,0.39506593346595764,0.02351030521094799,0.6127002835273743,-0.30361515283584595,-0.23573242127895355,-0.33075791597366333,0.5081562399864197,-0.049578092992305756,-0.012878082692623138,-0.4011416435241699,-0.04685848951339722,0.13764867186546326,-0.0825275182723999,-0.10006147623062134,-0.16869337856769562,0.7204325199127197,0.23893555998802185,0.1597849577665329,0.1212516501545906,-0.018060503527522087,0.24921250343322754,-0.025696206837892532,-0.4125751256942749,-0.551796019077301,-0.09614460170269012,0.3758857846260071,-0.09489791095256805,-0.15126489102840424,-0.1842975616455078,0.35354113578796387,0.026005420833826065,-0.10015997290611267,0.09645947068929672,0.15418776869773865,-0.07809040695428848,0.055687692016363144,0.16176678240299225,0.00801313016563654,0.21583612263202667,0.09089452773332596,0.07537774741649628,-0.017980486154556274,-0.23954087495803833,0.19447968900203705,-0.007224690169095993,-0.140956312417984,-0.09266408532857895,-0.07826148718595505,-0.14587487280368805,0.16278202831745148,-0.45064836740493774,0.28615713119506836,-0.031026503071188927,-0.05295519530773163,-0.01057492196559906,0.0008231254760175943,0.14560700953006744,0.08063381165266037,-0.13541702926158905,-0.007662604562938213,-0.018361419439315796,-0.03510613739490509,-0.01566251553595066,-0.15844032168388367,0.07466235011816025,-0.03521864861249924,-0.16144204139709473,-0.14291156828403473,-0.1980264037847519,0.14911705255508423,0.07521718740463257,0.44217339158058167,-0.08334781974554062,-0.07862251251935959,0.24389123916625977,0.2093571275472641,0.044988565146923065,0.16854611039161682,0.4587695598602295,-0.12854814529418945,0.3136005103588104,-0.30952879786491394,-0.050802167505025864,0.09395645558834076,-0.18551743030548096,-0.1315452605485916,0.051788199692964554,-0.11392635107040405,0.06708230823278427,-0.2484470009803772,0.3101111948490143,0.04707835242152214,0.22308269143104553,0.1432388573884964,-0.12432996928691864,-0.08125529438257217,0.22887127101421356,0.10417266190052032,0.09324710816144943,-0.26108288764953613,0.04349198937416077,-0.15640898048877716,-0.14502787590026855,0.276618629693985,0.30292946100234985,0.11503750085830688,-0.16096705198287964,0.23626811802387238,-0.25478649139404297,-0.04915396869182587,0.020254986360669136,-0.4471064805984497,0.19161708652973175,0.2636941075325012,0.42648279666900635,0.23841890692710876,0.05966101959347725,-0.4214610159397125,-0.12733547389507294,-0.16337202489376068,0.34967368841171265,0.18575209379196167,0.11883729696273804,0.04076283797621727,0.02679002843797207,0.05441862344741821,-0.18297679722309113,0.14688177406787872,-0.15050536394119263,0.054383691400289536,0.12860096991062164,-0.12875230610370636,-0.14664746820926666,0.01250694040209055,-0.037746138870716095,0.1473945677280426,-0.06668515503406525,0.25303915143013,0.1357630491256714,-0.10344218462705612,0.020322632044553757,0.05663063004612923,0.3508106768131256,0.09558506309986115,0.19122987985610962,-0.15884871780872345,0.002219935180619359,-0.12245600670576096,0.0637417882680893,-0.10156580805778503,0.13504137098789215,-0.05920228362083435,0.015759781002998352,-0.06945135444402695,0.2819420397281647,-0.0058384910225868225,-0.03890996053814888,-0.01940290816128254,-0.11212509870529175,0.39061152935028076,0.06594259291887283,0.20647591352462769,0.2705407440662384,0.10418287664651871,-0.24993129074573517,0.22871161997318268,-0.0995047315955162,0.313113808631897,-0.16085311770439148,0.07788177579641342,-0.054101306945085526,0.04979049041867256,-0.2559666037559509,0.12043307721614838,0.1388404220342636,-0.19641897082328796,0.05269913375377655,0.077115498483181,0.015334608033299446,0.24502216279506683,0.24044069647789001,-0.020945526659488678,0.22692009806632996,0.22466525435447693,0.3572331368923187,-0.05345921590924263,-0.18577495217323303,0.05884766951203346,0.0414082296192646,0.06884888559579849,-0.3610606789588928,0.03014880232512951,-0.19177508354187012,-0.04235086217522621,-0.2144559919834137,-0.055400606244802475,0.030335400253534317,-0.13776375353336334,0.05866614729166031,0.3030703365802765,0.057401761412620544,0.1319328099489212,-0.2797485589981079,0.04716102406382561,0.13930287957191467,0.11918533593416214,-0.5229069590568542,-0.31207045912742615,-0.07452281564474106,0.2788078486919403,0.23073607683181763,0.05620143935084343,0.2306571900844574,0.028680237010121346,0.4066917896270752,0.40179404616355896,0.2712442874908447,0.023279257118701935,0.06270252913236618,0.18524916470050812,-0.12213757634162903,0.03322051465511322,-0.21189124882221222,-0.0063131265342235565,0.15393652021884918,0.22228339314460754,0.025860225781798363,-0.1504995971918106,0.2650631070137024,0.09958559274673462,0.013647479005157948,0.08551487326622009,0.08219914138317108,-0.23140116035938263,-0.5672879219055176,0.19523176550865173,0.20741386711597443,-0.41599518060684204,0.019515153020620346,-0.8119349479675293,-0.23142220079898834,-0.34892088174819946,0.7165734767913818,-0.587790310382843,-0.30372628569602966,-1.1396433115005493,0.21617551147937775,-0.7065809369087219,0.21189624071121216,-0.7453787326812744,-0.13135926425457,-0.26563742756843567,-0.09764494746923447,0.2620697021484375,0.20613157749176025,0.09229087084531784,-0.3414152264595032,0.020887259393930435,-0.30689385533332825,-0.1954115778207779,0.016180215403437614,0.16375689208507538,0.042179130017757416,-0.061888691037893295,0.06256478279829025,-0.02139994315803051,-0.13320721685886383,-0.39083319902420044,-0.06908731162548065,0.2599543333053589,-0.23091641068458557,0.2753291428089142,-0.07301923632621765,-0.20910294353961945,-0.10099827498197556,-0.2371809035539627,0.0040991404093801975,0.25998637080192566,-0.18435703217983246,-0.020709596574306488,0.1811896115541458,0.06408436596393585,-0.3346867859363556,-0.4345456063747406,-0.3042292892932892,0.4391915798187256,-0.21441006660461426,0.2782319486141205,-0.2565283179283142,-0.14243146777153015,-0.3816106915473938,0.133616104722023,-0.1865117996931076,-0.34267303347587585,0.2063412070274353,-0.09030560404062271,-0.024891119450330734,0.2641298174858093,0.4708074927330017,0.18992991745471954,-0.16792306303977966,-0.3629993200302124,-0.20170935988426208,-0.07414914667606354,0.12098890542984009,-0.08107692003250122,0.2802971601486206,0.24156005680561066,0.13507132232189178,0.33847883343696594,0.00833283830434084,-0.012348049320280552,-0.11039179563522339,0.01839584857225418,0.12471358478069305,0.1340738832950592,0.04037332907319069,-0.09308888763189316,0.3850403130054474,-0.19554735720157623,0.015106677077710629,0.37808993458747864,0.10184162855148315,-0.19849097728729248,-0.2583579123020172,0.27198347449302673,-0.2895910143852234,0.05977831780910492,0.014475411735475063,-0.27486732602119446,-0.4213501214981079,-0.3794112801551819,-0.35568156838417053,0.19019432365894318,0.04852478206157684,0.04573098197579384,-0.28824669122695923,-0.31273016333580017,-0.29710653424263,0.3216190040111542,-0.0812777578830719,-0.37486737966537476,0.04230721294879913,-0.15815436840057373,0.06693752855062485,0.21918919682502747,0.37990763783454895,-0.039040978997945786,0.10904818028211594,-0.3933631181716919,0.05923323333263397,0.2739916443824768,-0.12675467133522034,-0.030984459444880486,-0.06874433159828186,-0.14932489395141602,-0.17087766528129578,0.22118882834911346,-0.28640803694725037,-0.5748471021652222,-0.10808613151311874,-0.03300340846180916,0.05108232796192169,-0.15237629413604736,0.14562997221946716,0.05381263792514801,0.2110973596572876,-0.006308423820883036,-0.08312058448791504,0.048829153180122375,-0.24242854118347168,0.12588012218475342,-0.3136025071144104,0.060084596276283264,-0.11434363573789597,-0.04417084529995918,0.1284768432378769,0.13157778978347778,-0.29851678013801575,0.22393985092639923,-0.24614574015140533,-0.021110456436872482,-0.35286498069763184,-0.10159479081630707,-0.09475536644458771,-0.2592633366584778,0.12668396532535553,0.27412140369415283,0.3421773612499237,-0.3261167109012604,0.2919531464576721,0.07597051560878754,-0.20568732917308807,0.4520854651927948,-0.05624627694487572,-0.12753050029277802,-0.039362479001283646,-0.13900722563266754,0.0762275829911232,-0.06218710169196129,0.08797707408666611,0.04414742439985275,0.08245264738798141,-0.04098860174417496,0.14728255569934845,0.2991156280040741,0.09639190137386322,0.03549453616142273,0.16299787163734436,-0.1569606065750122,-0.17909446358680725,-0.2016322761774063,-0.3019311726093292,0.1120869517326355,-0.15483644604682922,-0.10611416399478912,-0.08067457377910614,-0.164139062166214,0.18311429023742676,0.5381268262863159,-0.19883224368095398,0.08301801234483719,0.17172405123710632,-0.0002875328646041453,-0.04441584274172783,0.24402284622192383,0.3428843319416046,0.25162121653556824,-0.2599528729915619,-0.12172715365886688,-0.001983469584956765,-0.17919738590717316,0.17115738987922668,0.26570892333984375,-0.2541165053844452,0.059136491268873215,0.3608800172805786,-0.10618478059768677,-0.09645440429449081,-0.23263362050056458,0.07582931965589523,-0.06043050438165665,-0.19072428345680237,-0.37290775775909424,-0.5441522598266602,0.5055543780326843,-0.1551753729581833,0.09476379305124283,-0.3079124689102173,0.2032185196876526,-0.41681674122810364,-0.04134908318519592,0.14160330593585968,-0.3673075735569,0.3184264302253723,-0.3328303098678589,-0.011158137582242489,0.001980701694265008,0.24207699298858643,0.1497521549463272,-0.20528556406497955,-0.05528983101248741,-0.383985310792923,0.07338112592697144,-0.04330246523022652,-0.19010572135448456,0.2513876259326935,0.36917561292648315,-0.012013674713671207,-0.20508632063865662,0.4960842728614807,-0.0997719094157219,0.011966087855398655,0.04712774232029915,0.09404049068689346,0.22473062574863434,0.09534521400928497,-0.13103272020816803,-0.07565660029649734,-0.30865946412086487,0.3376334309577942,0.14080391824245453,0.13899093866348267,0.13573552668094635,-0.25009313225746155,0.16387420892715454,-0.2686980366706848,0.3350614607334137,0.2251708209514618,0.09025316685438156,-0.05106901749968529,-0.08644117414951324,-0.24391405284404755,0.15985524654388428,-0.38210949301719666,0.16340214014053345,-0.16769346594810486,-0.14018750190734863,-0.039092011749744415,0.10379152745008469,0.2746793031692505,-0.16423273086547852,0.18463760614395142,-0.011121468618512154,-0.3604923486709595,0.07955577224493027,-0.10377401113510132,0.07652421295642853,0.10052706301212311,0.02966282144188881,-0.2530475854873657,0.024346083402633667,0.17684295773506165,0.12712137401103973,0.19764208793640137,0.10341742634773254,0.3067793846130371,-0.3808441758155823,0.15243400633335114,-0.1274024397134781,-0.16757898032665253,0.03930477052927017,0.12532860040664673,0.031882330775260925,-0.3507210910320282,0.1354154795408249,-0.11125438660383224,-0.1526089757680893,-0.06715713441371918,-0.00383855402469635,-0.07563921809196472,-0.24923166632652283,-0.3199562430381775,-0.056995101273059845,0.04027669131755829,-0.03123556822538376,-0.15813739597797394,0.4345284700393677,0.1549394130706787,-0.183755561709404,-0.23493419587612152,0.09160008281469345,0.1401418149471283,0.0869496688246727,0.1673554629087448,-0.12598559260368347,-0.09483185410499573,0.06480972468852997,0.10635702311992645,-0.023168835788965225,0.03811708092689514,-0.017732178792357445,-0.06638608872890472,-0.22272557020187378,-0.25009292364120483,-0.5238466858863831,-0.05927373096346855,0.045015450567007065,-0.004066296853125095,0.06585367769002914,0.012954283505678177,0.039400745183229446,-0.04329702630639076,0.04860474541783333,0.00731160631403327,-0.13069398701190948,-0.003924960270524025,0.18260551989078522,-0.2291438728570938,-0.14205852150917053,-0.2344987988471985,0.005999354179948568,0.2128623127937317,-0.18273600935935974,0.12920896708965302,-0.14139997959136963,0.22061647474765778,0.20580777525901794,0.11213333904743195,0.19788971543312073,0.019920814782381058,-0.0879315584897995,0.17414727807044983,-0.023122066631913185,0.21941666305065155,-0.3856377899646759,0.11345409601926804,-0.11448826640844345,0.10034070163965225,-0.1844659447669983,-0.008080613799393177,-0.23252145946025848,-0.08329249918460846,-0.003660507034510374,0.16742171347141266,-0.04114463925361633,-0.284559965133667,-0.04291610047221184,0.1041620671749115,0.07948125153779984,0.37293365597724915,0.10297785699367523,0.06277385354042053,0.020531639456748962,0.00877552293241024,-0.14989612996578217,-0.021100427955389023,0.15047119557857513,-0.13152115046977997,0.11568416655063629,0.06898230314254761,-0.2084541916847229,0.18001651763916016,0.043643757700920105,0.4207567274570465,0.12059076130390167,-0.0654694065451622,-0.11464846879243851,-0.05131847411394119,-0.20854738354682922,-0.09247422218322754,-0.0037015110719949007,-0.1563475877046585,-0.038953185081481934,-0.0009152241400443017,-0.09683484584093094,0.15152840316295624,-0.4932936728000641,0.2664404511451721,0.20026417076587677,0.017761262133717537,-0.06727368384599686,-0.09877607226371765,0.2770043909549713,-0.21377462148666382,-0.12595920264720917,0.03364576771855354,0.32281437516212463,0.19268134236335754,0.15228374302387238,0.043245818465948105,-0.04355943948030472,-0.036128927022218704,-0.005191806238144636,0.1254638284444809,0.10104908794164658,0.08352341502904892,-0.2502293288707733,-0.30377647280693054,-0.12874476611614227,0.13476110994815826,-0.37145331501960754,0.2915562689304352,0.048690248280763626,-0.021428871899843216,-0.09098123759031296,0.03679909184575081,-0.15057973563671112,-0.09838872402906418,0.2112978994846344,0.15956754982471466,-0.0710991621017456,-0.10375946760177612,-0.2873041033744812,-0.15415777266025543,0.27516046166419983,0.04541977867484093,0.36861538887023926,-0.009409302845597267,-0.1066390872001648,0.3960179090499878,-0.2275828868150711,0.21736252307891846,0.27780380845069885,-0.30383461713790894,0.24052228033542633,-0.10221610963344574,-0.24505306780338287,0.012417798861861229,-0.2230849266052246,0.17033858597278595,-0.4325491786003113,0.6697888374328613,0.37555959820747375,0.3889431953430176,-0.01465368177741766,-0.3383346498012543,-0.14733213186264038,0.10627572983503342,0.3089301884174347,0.0908392071723938,-0.03562091663479805,-0.21402481198310852,-0.2732393443584442,-0.0974472388625145,0.048295311629772186,0.0762024000287056,0.09055739641189575,-0.17059463262557983,0.39283493161201477,-0.1477862447500229,-0.25650569796562195,0.13975590467453003,0.15120559930801392,-0.34349918365478516,0.17803792655467987,0.036903247237205505,-0.09989938139915466,-0.00561918318271637,-0.5360245108604431,0.44244641065597534,-0.0347776785492897,0.12412779033184052,-0.25263017416000366,0.4180416166782379,-0.17209646105766296,0.20683571696281433,0.2666257321834564,0.16072562336921692,-0.029493188485503197,0.29760146141052246,0.053969960659742355,-0.011222935281693935,-0.06359071284532547,0.09881063550710678,-0.06538067013025284,0.0173797607421875,0.05464041233062744,0.010852624662220478,-0.15389283001422882,-0.02629360556602478,0.0394887737929821,-0.011286180466413498,0.003149793017655611,0.1874338686466217,-0.12198615074157715,-0.1533585488796234,0.16182559728622437,0.013915673829615116,-0.12831296026706696,0.04399934411048889,-0.07806417346000671,0.12196619063615799,0.1795213669538498,-0.16014567017555237,-0.16061463952064514,0.036315999925136566,-0.0071515669114887714,-0.019362255930900574,-0.03371121734380722,0.2343749701976776,0.035021573305130005,0.15420739352703094,-0.32313770055770874,-0.32666394114494324,0.10028304159641266,0.08847645670175552,-0.18210147321224213,0.39382311701774597,0.06213454157114029,-0.013398566283285618,-0.0601474829018116,0.09668531268835068,0.05001525208353996,-0.13137874007225037,-0.03572317957878113,0.23806001245975494,0.1668931543827057,0.11092826724052429,-0.015381505712866783,-0.05471343174576759,0.09632451832294464,-0.2548579275608063,0.048889368772506714,0.031953055411577225,0.1153813898563385,0.2764134109020233,-0.2105465978384018,-0.13936391472816467,0.1663166880607605,-0.2092733532190323,0.2208559811115265,0.09771781414747238,-0.14968428015708923,-0.19558477401733398,0.13709190487861633,0.11720196902751923,-0.16059553623199463,-0.2973136007785797,-0.11177904158830643,-0.15145492553710938,-0.02077336609363556,-0.008672981522977352,0.022830024361610413,-0.12908226251602173,0.3180893659591675,-0.005338561255484819,0.03644377365708351,0.3058178126811981,-0.09091547876596451,-0.16084682941436768,0.06966880708932877,-0.18251743912696838,-0.10477864742279053,0.11793031543493271,-0.11025475710630417,-0.0496598482131958,0.24616402387619019,-0.1389690488576889,-0.17060624063014984,-0.3139544427394867,-0.2054360955953598,-0.2622948884963989,-0.07278497517108917,0.05543854087591171,-0.21129854023456573,-0.09055563062429428,-0.07881680130958557,-0.11349215358495712,-0.032442186027765274,0.2748654782772064,0.0527820885181427,0.07161596417427063,-0.14328789710998535,-0.18421392142772675,-0.20021243393421173,0.1102515310049057,0.017073124647140503,0.23264962434768677,0.18543043732643127,-0.12318044900894165,0.11936195939779282,0.014734284020960331,-0.1646549254655838,-0.17883649468421936,0.015697559341788292,0.2975791394710541,0.03221765533089638,0.1663474142551422,-0.054082803428173065,-0.254146546125412,0.10541325807571411,0.0935337170958519,-0.08917310833930969,-0.12911073863506317,-0.13080085813999176,-0.21871554851531982,-0.016250761225819588,0.17152762413024902,-0.06621994078159332,0.03388006612658501,0.30586469173431396,-0.05077947676181793,-0.11621053516864777,0.0050242505967617035,-0.039764124900102615,-0.015324736014008522,0.09255910664796829,0.2615620195865631,0.11343022435903549,-0.2214357852935791,0.07930593192577362,0.08137489855289459,-0.040133848786354065,0.08266472071409225,0.19292764365673065,-0.07495412230491638,-0.05505622923374176,-0.010504820384085178,0.15743860602378845,-0.12159128487110138,0.1831439733505249,0.07542863488197327,-0.015716027468442917,-0.10445933789014816,0.18643870949745178,-0.10662693530321121,0.06271665543317795,0.021201279014348984,-0.16725297272205353,0.002768850652500987,0.004323284141719341,0.03657514601945877,0.05547036603093147,-0.14658987522125244,-0.19631758332252502,-0.020764341577887535,-0.06308429688215256,0.19416698813438416,0.016602089628577232,0.05048090219497681,0.011710003949701786,-0.0015911217778921127,-0.22540424764156342,0.17151249945163727,0.04886781796813011,0.04804297164082527,-0.010540655814111233,-0.20482487976551056,0.04515325278043747,0.03964618220925331,0.11028701812028885,0.12749336659908295,0.014362107031047344,-0.14775480329990387,-0.17571796476840973,-0.19665485620498657,-0.3888390362262726,-0.14413926005363464,0.1260099560022354,0.10356293618679047,0.05314532667398453,0.1076400950551033,0.09282299131155014,-0.04337574914097786,-0.2504326105117798,-0.041719526052474976,0.09897719323635101,-0.3147808015346527,-0.1022496446967125,0.022311696782708168,0.3464338481426239,0.10325893759727478,0.15936867892742157,0.013643226586282253,-0.27123135328292847,-0.012671715579926968,0.14889861643314362,-0.07453489303588867,0.13984698057174683,0.15685291588306427,0.00017891617608256638,0.05965684354305267,-0.051360271871089935,-0.033133454620838165,0.14289896190166473,-0.14929638803005219,0.11270435154438019,-0.3112207055091858,-0.012586284428834915,-0.1349630355834961,0.022638672962784767,-0.04489313066005707,-0.07876569032669067,-0.06303021311759949,0.1259370893239975,-0.019633175805211067,0.16193833947181702,-0.22552086412906647,0.16796977818012238,-0.10135518014431,0.10617044568061829,0.094387948513031,-0.1270783692598343,-0.12038851529359818,-0.04253203794360161,-0.2622434198856354,0.16718414425849915,0.10479969531297684,-0.08404989540576935,-0.17966637015342712,-0.049782656133174896,0.1004972755908966,-0.24866731464862823,-0.30841901898384094,-0.23307088017463684,-0.023600121960043907,-0.1537192314863205,-0.18175381422042847,-0.040159326046705246,0.27249300479888916,0.15418583154678345,-0.178301140666008,-0.14351655542850494,-0.2992539703845978,0.19609585404396057,-0.07815718650817871,-0.08180583268404007,-0.18726246058940887,-0.11513474583625793,0.22467291355133057,0.29965516924858093,0.0001599600218469277,0.07637623697519302,-0.056414078921079636,0.00749824196100235,-0.0928720012307167,-0.2448641061782837,0.03423948585987091,-0.07909043878316879,-0.07226449251174927,0.20076587796211243,0.18774640560150146,-0.2696894407272339,-0.1346609741449356,0.08736061304807663,-0.07045531272888184,0.008859992027282715,-0.36511632800102234,0.0709715411067009,0.11789184808731079,-0.07768571376800537,0.1536955088376999,-0.005667374935001135,-0.11843899637460709,0.12021204084157944,-0.07938741892576218,0.17688578367233276,0.05039479210972786,0.1800878345966339,0.023054884746670723,0.07901263236999512,0.12569235265254974,0.1746295839548111,0.2786153256893158,-0.06535402685403824,0.2777176797389984,-0.08431810885667801,-0.0370047353208065,-0.19069768488407135,0.34118491411209106,0.18771310150623322,-0.05252630636096001,0.04397563636302948,0.07318931072950363,0.018810084089636803,-0.09888306260108948,0.0862673670053482,-0.1763436645269394,-0.09278469532728195,-0.03478068485856056,0.07490453124046326,-0.08030029386281967,-0.036639731377363205,0.08883487433195114,0.38952958583831787,0.05508759617805481,0.10750636458396912,0.22009988129138947,0.18654736876487732,-0.10817854106426239,-0.016563700512051582,-0.08910112828016281,-0.11495354026556015,-0.02305777184665203,0.023281531408429146,0.1145201176404953,-0.04242068529129028,-0.2494739592075348,-0.15138550102710724,0.16566842794418335,-0.08238328248262405,0.16450680792331696,0.03022373467683792,-0.18452021479606628,0.32894638180732727,-0.16822299361228943,-0.06725147366523743,0.3318682312965393,-0.3560810685157776,0.09211108833551407,0.3344980478286743,0.33391228318214417,0.1220119372010231,-0.1022372916340828,0.2693290710449219,-0.2922343611717224,-0.3853420317173004,-0.24664928019046783,0.16894638538360596,0.37169310450553894,0.35425490140914917,-0.13851892948150635,-0.4036233127117157,-0.4886016547679901,0.060285668820142746,0.045635122805833817,0.1425917148590088,-0.08726944774389267,-0.41067126393318176,-0.3884178102016449,-0.18346089124679565,0.12491622567176819,-0.14734122157096863,0.027082281187176704,0.26788726449012756,-0.17741206288337708,0.003027668921276927,0.131179541349411,-0.40041133761405945,-0.17402490973472595,0.29982542991638184,0.0867827758193016,0.12762245535850525,-0.1854337453842163,-0.17353732883930206,-0.15319761633872986,0.06262200325727463,-0.13243624567985535,-0.09941700100898743,-0.3141671121120453,-0.060784295201301575,0.07437127083539963,-0.29069045186042786,-0.08462081104516983,-0.17476648092269897,-0.05807835981249809,-0.1969550997018814,-0.21402670443058014,-0.24776433408260345,-0.022660182788968086,-0.1386510580778122,-0.16923540830612183,0.13755957782268524,0.560770571231842,0.3324257433414459,-0.19939185678958893,0.16007709503173828,-0.12693746387958527,0.14376778900623322,-0.0075900056399405,0.09564300626516342,0.04719225689768791,-0.19753630459308624,0.10182581841945648,-0.08604849129915237,0.029859820380806923,0.01758897304534912,-0.039343900978565216,0.06486929208040237,-0.06318040192127228,-0.16522419452667236,-0.3915916383266449,-0.08993279933929443,-0.03720434010028839,0.00943064410239458,-0.18900728225708008,0.031684599816799164,0.014844133518636227,0.038719333708286285,-0.10269683599472046,-0.4388423562049866,-0.1554061770439148,0.12655214965343475,0.10396422445774078,0.04043307527899742,0.21667598187923431,0.437572717666626,-0.1293971836566925,0.06880449503660202,0.16775180399417877,-0.27019959688186646,0.1686069518327713,0.20660531520843506,-0.25090038776397705,-0.08637017756700516,-0.17509114742279053,0.05194144695997238,-0.05062955617904663,-0.10943378508090973,0.20161037147045135,-0.31208041310310364,0.4682660400867462,0.07682593166828156,0.05721592530608177,-0.16940191388130188,-0.3415757119655609,-0.04744502902030945,0.06171901896595955,0.041331786662340164,0.05169420316815376,0.03545565903186798,-0.12606558203697205,-0.07799325883388519,-0.08471962809562683,0.2529340386390686,-0.03816675394773483,0.00800734106451273,-0.12079621106386185,0.22819304466247559,0.03011314943432808,-0.11763201653957367,0.07446041703224182,0.41618844866752625,-0.19229023158550262,-0.03675759583711624,0.14769873023033142,-0.1851969212293625,-0.09625183045864105,-0.6141327023506165,0.18777817487716675,-0.007071930915117264,0.16532739996910095,-0.1126333549618721,0.19932566583156586,-0.04630143195390701,0.17571966350078583,0.1374170333147049,-0.22227303683757782,0.15832366049289703,-0.08099637925624847,-0.01176909264177084,0.02642412669956684,-0.24836832284927368,0.09011024981737137,0.009928288869559765,0.15453234314918518,-0.041756756603717804,-0.09422396868467331,-0.011833306401968002,-0.07444293797016144,-0.20217062532901764,0.2598319351673126,-0.012030621990561485,0.01714504323899746,0.03494903817772865,-0.10133285820484161,0.02187836728990078,-0.13296006619930267,-0.009514044038951397,0.008832702413201332,0.026276180520653725,0.01697417162358761,0.014841162599623203,-0.22222909331321716,-0.11287890374660492,0.006273203529417515,0.024303700774908066,0.19240495562553406,-0.2385920286178589,-0.07606963068246841,-0.07558876276016235,-0.051274947822093964,-0.28040677309036255,-0.03500838577747345,0.1062096431851387,0.09825647622346878,-0.06850496679544449,0.12456316500902176,-0.3057330846786499,-0.020041031762957573,-0.14074094593524933,0.12073975801467896,0.13941828906536102,0.08812284469604492,0.10612154752016068,-0.027971940115094185,0.3658077120780945,-0.1486012190580368,0.08483753353357315,0.2608100175857544,-0.2466936856508255,-0.018375342711806297,0.19061800837516785,0.1556759625673294,0.18969473242759705,-0.06722868978977203,-0.1071445569396019,0.12189672142267227,0.14074131846427917,0.07607027143239975,0.001963376998901367,0.075569748878479,0.14396221935749054,0.0611172690987587,-0.00036530604120343924,-0.1845298409461975,-0.04033453390002251,0.0334555022418499,-0.02365153841674328,-0.06514234095811844,-0.22194403409957886,-0.13546128571033478,-0.05796634405851364,0.22675688564777374,-0.2807384133338928,-0.1397697478532791,-0.0461946576833725,-0.181655153632164,0.12117628008127213,-0.06035993993282318,-0.1948108673095703,0.09834399074316025,0.11061947047710419,0.305686891078949,0.2729974389076233,-0.18393829464912415,-0.3178057372570038,-0.22826717793941498,0.11205939948558807,0.045454688370227814,-0.00006711497553624213,0.03156246617436409,-0.12833406031131744,0.13027796149253845,-0.1274745613336563,-0.015912577509880066,0.004121387843042612,0.012973825447261333,0.09133443236351013,0.05440240353345871,-0.2056368887424469,-0.22199736535549164,0.08270663022994995,-0.15885098278522491,-0.25943583250045776,-0.3630963861942291,-0.4889513850212097,0.5853989124298096,0.6262614130973816,-0.48143625259399414,0.16209815442562103,-0.26616838574409485,-0.05229668691754341,0.6723860502243042,-0.7468647360801697,0.8790420293807983,0.30521318316459656,-0.02890736237168312,-0.14850956201553345,0.08915987610816956,-0.9202019572257996,0.21075224876403809,-0.12716254591941833,-0.010940958745777607,-0.2154574692249298,0.3192439675331116,0.3872426152229309,0.016461648046970367,0.17241257429122925,0.23560598492622375,0.08264309167861938,-0.00016445467190351337,0.025847135111689568,-0.1527167409658432,0.07365961372852325,-0.17643629014492035,-0.18836742639541626,0.13468949496746063,0.058280281722545624,-0.06590403616428375,0.07592333108186722,-0.028425099328160286,0.16359035670757294,-0.032095927745103836,-0.25349199771881104,-0.31562355160713196,-0.03918805345892906,0.17080068588256836,-0.47725385427474976,0.06201019138097763,0.34365609288215637,0.27575409412384033,-0.1600496470928192,0.16689668595790863,-0.4698108732700348,0.12981626391410828,-0.6731612682342529,-0.23858466744422913,-0.2103145271539688,0.07210787385702133,-0.42639729380607605,-0.288616418838501,0.36111733317375183,-0.12421712279319763,0.7678887844085693,0.27857497334480286,0.02852475456893444,0.06895052641630173,0.22621583938598633,0.37220966815948486,0.018648432567715645,0.21554794907569885,-0.0395791232585907,0.16865792870521545,0.22143569588661194,-0.35399603843688965,0.1014716625213623,0.32769519090652466,-0.04958152398467064,0.33366629481315613,0.2249685823917389,0.22213198244571686,0.2718348503112793,0.27316924929618835,-0.15698902308940887,0.10927126556634903,-0.09392134100198746,0.3433091640472412,-0.03524961322546005,0.03828093409538269,-0.470532089471817,0.4412316083908081,-0.17334188520908356,0.044793855398893356,0.07576975971460342,-0.1372165083885193,0.07083707302808762,-0.12507444620132446,0.03521301969885826,0.3105718791484833,-0.18677067756652832,-0.12153610587120056,-0.06510651111602783,0.2723792791366577,-0.6287480592727661,-0.2589540481567383,-0.18446534872055054,0.30414122343063354,0.01901165023446083,-0.3867586553096771,-0.11825992912054062,0.11840707808732986,0.18310150504112244,-0.07999149709939957,-0.061144690960645676,0.23645928502082825,0.022607557475566864,0.11713458597660065,0.14357267320156097,-0.15597158670425415,0.27028149366378784,-0.01842365972697735,-0.06457478553056717,0.11057786643505096,-0.27298861742019653,-0.2532971501350403,0.17372210323810577,-0.02918945997953415,-0.12253431975841522,0.14899231493473053,0.555141806602478,0.0076974742114543915,0.1519620716571808,-0.0775316134095192,0.10111510753631592,-0.1336921602487564,-0.2879643440246582,0.009991694241762161,-0.12242059409618378,-0.023117592558264732,-0.08989692479372025,0.09806156158447266,-0.023702699691057205,-0.004133129958063364,0.18382301926612854,-0.25091904401779175,-0.15205711126327515,-0.02854677475988865,-0.06725042313337326,-0.1939713954925537,0.20720930397510529,-0.17050603032112122,-0.07355108112096786,-0.019278492778539658,-0.021232934668660164,-0.15101341903209686,0.08589968085289001,-0.13229268789291382,0.12454181164503098,-0.08213558048009872,0.40629664063453674,-0.22451536357402802,-0.10121382772922516,0.022823454812169075,0.2583264708518982,0.23139183223247528,-0.1829899251461029,-0.2316022515296936,0.29436245560646057,0.22643637657165527,0.33916762471199036,-0.285758376121521,-0.21136237680912018,-0.08947891741991043,-0.022090204060077667,0.01155041716992855,-0.27175870537757874,0.023749439045786858,-0.052900493144989014,0.2331368327140808,-0.13675400614738464,0.28684699535369873,-0.23066776990890503,-0.08550400286912918,-0.3687465786933899,0.19571775197982788,-0.0511905774474144,0.07936929166316986,-0.0669703334569931,0.2639305293560028,0.12477151304483414,-0.1817665696144104,0.3237212002277374,0.11666026711463928,0.08720444142818451,0.07335411012172699,0.1924615502357483,0.19169995188713074,0.2509883940219879,-0.23853234946727753,0.031853385269641876,-0.5161991119384766,0.248636394739151,0.22952228784561157,0.10926400870084763,-0.11711101979017258,-0.12416911125183105,-0.08072730898857117,0.15148673951625824,-0.0949542373418808,-0.1598076969385147,0.07673360407352448,0.11399471759796143,-0.31843990087509155,-0.1445925384759903,-0.06297101080417633,-0.20363786816596985,-0.005215006414800882,0.3376695215702057,-0.3674115240573883,0.018457986414432526,0.045173145830631256,-0.0883229449391365,0.05411640182137489,0.22447413206100464,-0.06784661114215851,0.049501217901706696,-0.020203430205583572,0.037592750042676926,0.04418157413601875,0.11906180530786514,-0.439127117395401,-0.3247211277484894,0.30416467785835266,0.15938812494277954,-0.10195134580135345,-0.09070826321840286,-0.011909881606698036,0.0717088133096695,0.14594393968582153,-0.18349766731262207,0.27671483159065247,0.09645667672157288,-0.17933741211891174,0.01899774931371212,0.025669755414128304,-0.12225858122110367,-0.006791027262806892,-0.19465406239032745,-0.3406199812889099,-0.3214017152786255,0.263177752494812,-0.48639482259750366,0.023723414167761803,0.4224299490451813,-0.11706550419330597,0.38943737745285034,-0.17147281765937805,-0.18481890857219696,0.05959000065922737,-0.06118650361895561,0.09495473653078079,-0.012027616612613201,-0.4241563379764557,-0.3347119987010956,-0.07827344536781311,0.11142812669277191,-0.12179417908191681,-0.15149913728237152,0.13743825256824493,0.27609649300575256,0.24358393251895905,0.5310564637184143,-0.05200823023915291,0.3787998855113983,-0.08428575098514557,0.20377255976200104,-0.0097112488001585,0.01904207095503807,0.18433113396167755,0.25538307428359985,-0.15559931099414825,-0.03141819313168526,0.23260484635829926,0.07103129476308823,-0.2531009018421173,-0.12317293882369995,0.06953548640012741,-0.02198163978755474,-0.047267552465200424,0.06531336903572083,0.21448524296283722,0.11311624199151993,-0.3040447533130646,-0.6111780405044556,0.00225441693328321,-0.5140551328659058,-0.044697340577840805,0.09971878677606583,-0.10425963252782822,-0.2839358150959015,0.10966532677412033,-0.019481774419546127,-0.1533980369567871,0.16777551174163818,-0.03154171258211136,-0.0656118094921112,-0.045874301344156265,-0.10454409569501877,-0.14450819790363312,0.01274394802749157,-0.13486364483833313,0.0894698053598404,0.10992837697267532,-0.22838731110095978,0.14271146059036255,0.1685391664505005,0.13875894248485565,-0.22382523119449615,-0.14312179386615753,-0.09796386957168579,0.2067616581916809,0.058378055691719055,-0.46847668290138245,-0.455700159072876,0.2233874499797821,0.2594625651836395,-0.1714111715555191,-0.15967494249343872,-0.0741732120513916,-0.11139022558927536,-0.15912961959838867,-0.14594821631908417,-0.3341570496559143,-0.20176470279693604,-0.19972948729991913,-0.04283205792307854,0.10040469467639923,-0.09224987775087357,-0.38219067454338074,0.0510253943502903,-0.20607653260231018,0.43538081645965576,-0.05945448577404022,-0.08774023503065109,-0.37215352058410645,0.20649921894073486,0.037530023604631424,0.1005147397518158,0.0979999378323555,-0.13156361877918243,-0.84611576795578,0.3770710825920105,-0.22088387608528137,-0.06196672469377518,0.18555699288845062,-0.017789827659726143,-0.006093110889196396,0.14959245920181274,0.014817989431321621,-0.2055860012769699,0.3990735709667206,-0.18208041787147522,0.07302752882242203,0.12326741963624954,0.16647742688655853,0.19836322963237762,-0.07387407124042511,-0.15020394325256348,0.06092032790184021,0.09756963700056076,-0.05080846697092056,0.05932756885886192,0.09110180288553238,0.0029141560662537813,-0.1931072473526001,-0.43559205532073975,0.08400288969278336,0.14338785409927368,-0.025589458644390106,0.0637381449341774,0.0826450064778328,-0.29121890664100647,-0.08527808636426926,0.20190471410751343,0.1778644174337387,-0.16879114508628845,-0.03812330216169357,-0.10679434984922409,-0.20821814239025116,-0.3854031264781952,0.15997549891471863,0.1385524719953537,-0.19173461198806763,-0.37391528487205505,-0.1368744969367981,-0.2135027050971985,0.038041599094867706,-0.13591596484184265,0.15890443325042725,0.10150996595621109,0.15062834322452545,0.10663387179374695,-0.06558194011449814,0.11200030148029327,0.028719278052449226,-0.4245935082435608,-0.17644113302230835,0.006118409801274538,-0.34229037165641785,0.0406707227230072,0.06778242439031601,-0.23108847439289093,0.00884073693305254,-0.1565169095993042,0.10749736428260803,-0.011563844978809357,0.10527634620666504,-0.04004715383052826,0.10375272482633591,0.17538024485111237,0.1298334151506424,0.07761535048484802,-0.16017960011959076,0.1376418173313141,0.06555070728063583,-0.028976010158658028,0.07336464524269104,-0.05964737758040428,-0.025295710191130638,0.06906690448522568,0.04604316130280495,-0.11008507758378983,-0.18648913502693176,0.14480827748775482,-0.1997276246547699,0.04117477685213089,-0.006011832971125841,0.10016071796417236,-0.09811928868293762,-0.19062939286231995,0.29303157329559326,0.3173523247241974,0.0578564777970314,-0.0188510250300169,0.08176308870315552,0.07670222222805023,0.13133977353572845,-0.2532575726509094,-0.0630868673324585,0.01971096731722355,-0.02928212657570839,-0.3287303149700165,-0.21748465299606323,-0.023432541638612747,-0.03974027559161186,0.0808885470032692,0.07424574345350266,-0.18921832740306854,-0.029170488938689232,0.16468308866024017,0.26961421966552734,-0.06375151872634888,-0.1476440578699112,-0.25464916229248047,-0.013537073507905006,0.1304103434085846,-0.09251277893781662,-0.063951276242733,0.17640815675258636,0.0887695923447609,0.07856207340955734,-0.04330318048596382,0.006292866077274084,0.10884072631597519,-0.21753756701946259,0.18770334124565125,-0.18845605850219727,-0.16313163936138153,-0.14839063584804535,0.09369463473558426,0.1314186006784439,-0.11484444886445999,-0.0053545585833489895,-0.04118170589208603,0.20479954779148102,0.09679858386516571,-0.06490772217512131,0.16782540082931519,-0.026214689016342163,-0.055141009390354156,-0.027183987200260162,0.2168206125497818,-0.004851678851991892,0.00580524280667305,-0.05400532856583595,-0.1323210895061493,0.2001533955335617,-0.20555688440799713,-0.0895003229379654,-0.04044865071773529,0.09077174216508865,0.19232586026191711,0.023532958701252937,-0.1718650609254837,-0.00973060168325901,0.162120521068573,-0.04883267357945442,-0.03585097938776016,-0.2150784432888031,0.2227739542722702,-0.09511150419712067,-0.06608441472053528,-0.18759581446647644,-0.022190583869814873,0.2335921823978424,0.3208179175853729,0.039325326681137085,-0.22224129736423492,-0.06567396968603134,-0.09499597549438477,-0.2075028419494629,0.11893752217292786,-0.023137291893363,-0.1764167994260788,0.15296858549118042,-0.03178352862596512,0.075225330889225,-0.10423675179481506,-0.04172629490494728,-0.10217852145433426,0.016052430495619774,-0.08720844984054565,-0.02159423939883709,-0.07220444828271866,-0.015193111263215542,-0.10127168893814087,0.024197082966566086,-0.13784001767635345,-0.12547560036182404,0.6609609723091125,0.020275669172406197,-0.12531313300132751,-0.10810071229934692,-0.3178917467594147,0.2791770100593567,-0.18493923544883728,-0.14078198373317719,-0.06549699604511261,0.03354997560381889,0.09366404265165329,-0.02278319001197815,0.03626302257180214,-0.18521784245967865,0.11176996678113937,-0.07567378133535385,-0.11416423320770264,-0.2750056982040405,0.16873539984226227,-0.061610881239175797,0.08062135428190231,-0.0773918628692627,-0.09575239568948746,-0.15606039762496948,0.20243407785892487,-0.20722053945064545,0.015205835923552513,-0.018681233748793602,0.13513128459453583,-0.10021601617336273,0.13128022849559784,-0.05878004431724548,-0.07387541979551315,0.12177858501672745,-0.04140093922615051,0.13891826570034027,0.12902599573135376,-0.15085501968860626,-0.18200179934501648,0.4442952573299408,-0.10082443803548813,0.10309330374002457,-0.34217211604118347,0.02223634347319603,-0.38244590163230896,-0.22282558679580688,0.024743590503931046,0.16532844305038452,-0.3168926537036896,0.10348040610551834,0.31908056139945984,-0.017385991290211678,-0.537898063659668,-0.18773320317268372,0.06548866629600525,-0.09325147420167923,-0.5004820823669434,-0.3265753388404846,-0.007039131596684456,0.1160474643111229,-0.020886700600385666,-0.07285932451486588,0.02928195893764496,-0.031596019864082336,-0.01618822105228901,0.08815737813711166,0.03971856087446213,0.022830691188573837,-0.11745899170637131,0.1586325764656067,0.0649760365486145,0.29213660955429077,-0.2826434075832367,0.06452822685241699,0.20404064655303955,-0.14583054184913635,-0.0831410214304924,0.2848500609397888,-0.16652843356132507,0.008744432590901852,-0.05258581042289734,-0.06643284857273102,0.06754294782876968,-0.15503789484500885,0.08733025938272476,0.05369838327169418,0.23660919070243835,-0.4488224983215332,-0.22502535581588745,0.07967483252286911,0.262596994638443,0.03779905289411545,0.12986183166503906,-0.3845004439353943,0.3623163402080536,-0.23024983704090118,-0.13664117455482483,0.06138285994529724,0.01711154915392399,0.23219533264636993,-0.002613000338897109,-0.22360184788703918,0.22272774577140808,-0.0012720288941636682,-0.03985542431473732,-0.004609540104866028,-0.12220024317502975,-0.12103797495365143,-0.7554299235343933,0.11676593869924545,-0.0933496281504631,0.15330223739147186,0.03101682849228382,0.15416337549686432,-0.07998065650463104,-0.04539744183421135,-0.11905448138713837,0.013650095090270042,0.1442871242761612,0.1201140359044075,-0.023970920592546463,-0.07857388257980347,0.02198461815714836,-0.13271203637123108,-0.018330715596675873,0.10416259616613388,-0.06124493479728699,-0.00045347315608523786,0.10840775817632675,-0.26132866740226746,-0.045545462518930435,-0.09586101025342941,-0.057927634567022324,0.1517113447189331,0.1732666790485382,-0.2021421492099762,0.125629723072052,0.03441102057695389,0.3109752833843231,-0.018260451033711433,0.13159899413585663,0.049667902290821075,0.049725987017154694,0.054853182286024094,-0.29103589057922363,0.18092034757137299,-0.0976768508553505,-0.18904739618301392,0.20298977196216583,-0.29415830969810486,0.018198998644948006,0.12253886461257935,-0.11302433907985687,-0.054536059498786926,-0.08427990227937698,-0.16961097717285156,-0.1858658641576767,0.16597606241703033,-0.14194431900978088,-0.10772550851106644,-0.051024314016103745,0.14073365926742554,-0.03282034397125244,-0.11245867609977722,-0.046254295855760574,0.16198328137397766,-0.033256929367780685,0.21572986245155334,-0.165619894862175,0.11212153732776642,0.17526935040950775,-0.011151044629514217,-0.20164847373962402,0.24895045161247253,-0.0477384515106678,-0.17425037920475006,0.1176513060927391,0.010046502575278282,-0.14579792320728302,-0.07609990239143372,0.040693119168281555,0.060905586928129196,0.058370668441057205,-0.27180707454681396,0.25417232513427734,0.0602349191904068,0.04472831264138222,-0.07095249742269516,0.13002723455429077,-0.3197340667247772,0.09793158620595932,-0.011433725245296955,-0.11817608773708344,0.06723657995462418,-0.11949066072702408,-0.5537624359130859,0.27744048833847046,-0.013647327199578285,0.16367164254188538,0.10209967941045761,-0.02883361466228962,0.05422343313694,-0.15497355163097382,-0.2764988839626312,-0.21416349709033966,0.28258880972862244,-0.10610074549913406,0.1354755461215973,-0.007430383004248142,0.13609695434570312,-0.04265834018588066,0.03386158123612404,-0.2193315476179123,0.12297461181879044,-0.035834215581417084,-0.34583401679992676,-0.07475787401199341,0.031825125217437744,0.08708670735359192,-0.19017736613750458,-0.14782382547855377,0.1864614337682724,-0.0773545652627945,-0.044277846813201904,-0.019918572157621384,-0.0034684676211327314,-0.06955462694168091,-0.06283167749643326,0.11303112655878067,-0.12486477196216583,0.20309503376483917,-0.15823152661323547,0.32893630862236023,0.5542853474617004,0.13850104808807373,0.2090023159980774,0.44379428029060364,-0.2813590168952942,0.3101055324077606,0.18957039713859558,0.46364226937294006,-0.16112184524536133,0.16967999935150146,0.39285025000572205,-0.018892979249358177,0.017911020666360855,-0.09297560900449753,-0.13083988428115845,0.1985887885093689,0.04168756678700447,-0.08475180715322495,0.34194082021713257,0.18097013235092163,-0.05221240967512131,0.02189364843070507,-0.057348161935806274,-0.01660274527966976,-0.22646550834178925,0.11557641625404358,0.01830502785742283,0.04893120750784874,-0.022683415561914444,0.04141154885292053,-0.010126980021595955,0.4615063965320587,0.001864869031123817,-0.07091274857521057,0.02412632666528225,-0.14517556130886078,0.13126668334007263,0.04574598744511604,0.14239512383937836,-0.13169191777706146,0.07712150365114212,0.21785418689250946,0.06709575653076172,0.14908020198345184,-0.01612766645848751,0.04128723964095116,0.40624624490737915,-0.2771123945713043,-0.035859622061252594,-0.11384738236665726,0.06692012399435043,0.03990427777171135,0.2524600028991699,-0.15294115245342255,0.17839525640010834,-0.5424176454544067,0.2011030614376068,0.023882409557700157,-0.1654653549194336,0.12068220973014832,-0.2679140567779541,-0.10998071730136871,0.1531813144683838,-0.16233158111572266,-0.2113105207681656,-0.12319457530975342,0.22942757606506348,0.13613852858543396,0.1964685618877411,-0.018820129334926605,0.013521678745746613,0.2108086347579956,0.01063506118953228,-0.16073152422904968,-0.06252887099981308,-0.204337015748024,0.23801152408123016,0.18506748974323273,0.18308593332767487,-0.3923673629760742,0.08571527898311615,0.24879518151283264,-0.14706046879291534,0.017374929040670395,0.16885395348072052,-0.010960716754198074,-0.21120350062847137,0.22758075594902039,-0.1260092705488205,-0.021366354078054428,-0.24664151668548584,-0.2077346295118332,-0.03839605301618576,0.20412077009677887,-0.31344929337501526,0.03189539909362793,-0.24517646431922913,-0.36684709787368774,-0.26574549078941345,0.04434254392981529,0.07717985659837723,-0.0697985514998436,0.33117079734802246,-0.0275220088660717,-0.036550458520650864,0.17395304143428802,-0.29670047760009766,-0.5281888246536255,0.13541436195373535,0.07993282377719879,-0.11311320960521698,0.13419251143932343,-0.005561219993978739,-0.02515873685479164,0.013518278487026691,0.14282748103141785,-0.07054245471954346,0.09267345815896988,0.09872721880674362,0.11365775018930435,-0.16040675342082977,0.1321282684803009,-0.14669960737228394,-0.11742234975099564,0.07425738126039505,-0.013554592616856098,0.05275510996580124,-0.09285447001457214,-0.02401166968047619,-0.15391011536121368,0.055001433938741684,0.17117804288864136,0.02177695371210575,0.07015880197286606,-0.01298367790877819,-0.07774534076452255,0.17029474675655365,0.1815335899591446,0.11697887629270554,0.013227088376879692,-0.012283554300665855,0.22963154315948486,0.29453980922698975,-0.1382708102464676,0.14692534506320953,-0.438071608543396,-0.11670830100774765,-0.17885136604309082,0.36908549070358276,-0.0947745069861412,0.14315856993198395,-0.12006893754005432,0.06801114976406097,0.21171940863132477,0.606414794921875,-0.17243346571922302,0.11835911870002747,-0.1851683109998703,0.17987953126430511,0.05502573400735855,0.27243277430534363,-0.07765017449855804,0.10020037740468979,0.27896761894226074,0.14253762364387512,-0.13312803208827972,-0.1260305941104889,-0.10952901840209961,0.04489433020353317,0.15964490175247192,0.021564645692706108,-0.06441366672515869,-0.16879902780056,0.21073302626609802,0.27390405535697937,-0.1621336191892624,0.18065699934959412,-0.021038534119725227,-0.385075181722641,-0.1950564682483673,-0.09564846009016037,-0.0975872352719307,-0.16141103208065033,-0.17059959471225739,-0.09823895990848541,0.06040241941809654,-0.046207401901483536,-0.22254258394241333,0.1258947253227234,0.11822818219661713,0.07987793534994125,0.06637080758810043,-0.1649497002363205,-0.13305048644542694,0.14217396080493927,-0.1109514832496643,-0.09377104043960571,-0.022943027317523956,-0.1224852204322815,0.2154465913772583,-0.010733002796769142,-0.09642508625984192,0.1691504865884781,0.22928746044635773,0.05952564254403114,-0.12469449639320374,-0.15849973261356354,0.2820603549480438,-0.0906718373298645,-0.08723728358745575,0.0014902708353474736,-0.05087869614362717,-0.04569289833307266,0.04801567643880844,-0.005257301963865757,-0.03453418239951134,-0.16876110434532166,0.12559254467487335,0.1614873707294464,0.05028363689780235,0.0069735608994960785,-0.041063882410526276,-0.0038405193481594324,0.07154963910579681,0.02631651982665062,-0.0459558330476284,-0.10066359490156174,-0.07975263893604279,-0.2786143124103546,0.07724607735872269,0.02434568665921688,-0.1525868922472,0.2708489000797272,0.06239863485097885,0.06616545468568802,0.0621798150241375,-0.16464878618717194,-0.11736411601305008,0.23433145880699158,-0.0012124072527512908,0.011426055803894997,0.1358833611011505,0.22395266592502594,-0.254439115524292,0.0616430826485157,0.09725117683410645,-0.055920541286468506,-0.465582013130188,-0.027614440768957138,-0.010007929056882858,-0.04508735239505768,0.19518962502479553,-0.2508623003959656,0.117104172706604,-0.01633509248495102,-0.3052271008491516,-0.04670862853527069,-0.013977885246276855,0.0026832674629986286,0.04145808517932892,0.23878559470176697,-0.20218785107135773,0.1820649355649948,-0.03983721137046814,0.24915193021297455,-0.1444498598575592,-0.0234039518982172,-0.2871021628379822,0.07894037663936615,0.15255895256996155,-0.14753827452659607,-0.10736902058124542,0.02303297631442547,0.2468501329421997,-0.23108766973018646,-0.09428728371858597,0.028193596750497818,-0.14949943125247955,0.0033102016896009445,0.04776438698172569,-0.050429992377758026,0.09710035473108292,-0.0564449243247509,0.07623343914747238,0.11427869647741318,-0.0616019070148468,-0.25814974308013916,0.08205556124448776,0.028466124087572098,0.18890945613384247,0.22911442816257477,-0.0005797318881377578,0.14207154512405396,0.14263896644115448,-0.14090122282505035,-0.0773114264011383,0.020481934770941734,0.05394837632775307,0.027901608496904373,-0.09959417581558228,0.11861740797758102,0.059822920709848404,0.021840527653694153,0.22340893745422363,0.5313708186149597,0.3784540593624115,0.6042161583900452,-0.9188944101333618,-0.47156912088394165,0.11873362213373184,0.12623128294944763,-0.018402209505438805,0.3861426115036011,0.3916207253932953,-0.5454383492469788,0.3743230998516083,-0.1619759202003479,-0.7830170392990112,-0.014595964923501015,-0.1645805835723877,-0.26669201254844666,-0.08568189293146133,0.0772208496928215,-0.3373776376247406,0.20134493708610535,0.2576366066932678,-0.22204600274562836,-0.27385905385017395,-0.264035165309906,0.18228811025619507,-0.048515357077121735,-0.3066119849681854,0.18892766535282135,-0.0022521354258060455,0.09267284721136093,-0.18517647683620453,0.11172214895486832,-0.6756151914596558,0.5967177152633667,-0.1794736683368683,-0.1955370455980301,0.09637683629989624,0.19708752632141113,-0.06517641246318817,-0.28839924931526184,-0.18760621547698975,-0.30011069774627686,0.03652006760239601,-0.1603083610534668,0.2646256685256958,0.1573130488395691,0.3261048495769501,0.033269818872213364,0.1093980073928833,0.01999201998114586,-0.34416383504867554,-0.17218278348445892,-0.4284990429878235,-0.11840904504060745,0.2030142843723297,0.24171766638755798,-0.0004494568274822086,-0.027385860681533813,0.09710117429494858,0.18210917711257935,-0.08476327359676361,-0.14268054068088531,0.2658448815345764,-0.17986325919628143,-0.12334832549095154,-0.18096059560775757,0.2116902768611908,0.17195378243923187,-0.1013721153140068,0.36727169156074524,0.059211451560258865,-0.012270583771169186,-0.387177437543869,-0.13923978805541992,-0.08948181569576263,0.3495628535747528,-0.055648792535066605,-0.3101928234100342,-0.3040258586406708,0.1689968854188919,0.0596248023211956,-0.10675884038209915,0.13792088627815247,-0.10923854261636734,-0.02722293883562088,0.031023817136883736,-0.033519674092531204,0.15050579607486725,0.4378719925880432,0.2212081104516983,0.20687729120254517,-0.12212884426116943,-0.16893793642520905,-0.1119898185133934,0.10618139803409576,-0.20451389253139496,0.10668977349996567,0.309930682182312,0.2218167781829834,-0.3868899345397949,0.023582667112350464,0.015195148065686226,0.09845901280641556,0.2767634987831116,0.5020003914833069,-0.1640881896018982,0.47782930731773376,-0.043433353304862976,0.14042338728904724,-0.3418731093406677,0.43058469891548157,-0.03988153114914894,-0.5619418025016785,0.14095178246498108,-0.2814633846282959,-0.10302995890378952,-0.069405697286129,0.33175185322761536,0.1590808779001236,-0.360715389251709,0.06779194623231888,0.06674961745738983,-0.36079278588294983,0.060796286910772324,0.08321584761142731,-0.07684469223022461,-0.09590667486190796,-0.262709379196167,-0.17324964702129364,0.03173268586397171,0.04187024384737015,0.1359170526266098,0.1626611202955246,-0.04952259734272957,0.14204320311546326,-0.011695954948663712,0.16572317481040955,0.16087812185287476,-0.24920670688152313,-0.1460212916135788,0.018191367387771606,0.24024218320846558,0.05324411764740944,0.0798361673951149,-0.36565572023391724,0.3439462184906006,0.13840581476688385,0.18453209102153778,0.0378638319671154,-0.09029719978570938,-0.039717745035886765,-0.07305001467466354,-0.0682452842593193,-0.11717404425144196,-0.1905561089515686,0.023336315527558327,0.2671317160129547,0.1782785952091217,0.07418081909418106,0.024458453059196472,0.11927327513694763,0.07753578573465347,-0.30730393528938293,-0.11093082278966904,0.22306540608406067,-0.22303570806980133,0.06432788819074631,-0.45697709918022156,-0.04132392257452011,0.1421901136636734,-0.32958534359931946,0.20772738754749298,-0.23839108645915985,0.13861413300037384,0.05869193747639656,-0.0863661989569664,0.282376229763031,-0.3345866799354553,-0.3908555507659912,-0.14619767665863037,-0.09153701364994049,-0.1294092833995819,-0.18201400339603424,0.33247166872024536,-0.02634064480662346,-0.2752171456813812,-0.0004190872423350811,-0.15419726073741913,-0.2294297069311142,0.1712845116853714,-0.4528266191482544,0.11272866278886795,0.2857193052768707,-0.11857035011053085,0.024069715291261673,0.03821110725402832,-0.20829807221889496,0.014181522652506828,0.16624532639980316,-0.18847355246543884,0.14158058166503906,0.008745944127440453,0.09064605832099915,-0.2249983698129654,0.0711267814040184,-0.10798178613185883,-0.23675651848316193,0.13458094000816345,-0.07567697018384933,0.47504276037216187,0.30397987365722656,-0.013203971087932587,0.09645728766918182,-0.2508719861507416,-0.12053947150707245,0.1608937680721283,0.02677871473133564,-0.027106627821922302,-0.19715704023838043,-0.27713295817375183,0.28916072845458984,0.12881335616111755,-0.22608569264411926,0.057720690965652466,0.25170934200286865,-0.19421163201332092,0.223646879196167,0.15464097261428833,-0.004346806090325117,-0.15629839897155762,0.16062840819358826,0.13245292007923126,0.14399895071983337,0.02782692387700081,-0.13630856573581696,-0.336294561624527,-0.3166424632072449,-0.17806416749954224,-0.11168592423200607,0.29802748560905457,-0.3772660493850708,0.2109546810388565,0.12114402651786804,-0.3509247601032257,-0.26831814646720886,0.17549411952495575,0.0396261066198349,-0.18041132390499115,0.04885731264948845,-0.23381288349628448,0.19002017378807068,0.03185872361063957,0.03588620200753212,0.0024446730967611074,0.19045576453208923,-0.011622359044849873,-0.06328879296779633,-0.31273525953292847,0.1487041413784027,-0.1418909877538681,-0.38859185576438904,0.032304905354976654,0.08036169409751892,-0.05253272131085396,-0.2926797568798065,-0.15643182396888733,0.22691188752651215,0.02457725815474987,0.08865171670913696,0.22302289307117462,0.12698018550872803,-0.15153677761554718,0.20938654243946075,0.078453928232193,0.1422170102596283,-0.008530108258128166,0.007097221910953522,0.21520991623401642,0.05677468329668045,-0.12830781936645508,0.17931124567985535,0.09424154460430145,0.01843971386551857,0.016462894156575203,-0.1038346141576767,-0.05551906302571297,0.05606241896748543,0.637302041053772,0.6725580096244812,0.05097247660160065,0.07579467445611954,-0.21259944140911102,-0.4136861562728882,1.2436622381210327,-0.5057617425918579,-0.16071714460849762,-0.04244638606905937,0.2750767767429352,-0.1362220048904419,0.12836335599422455,-0.1316174417734146,-0.049413032829761505,-0.04521959647536278,-0.533441960811615,0.3806658089160919,0.6701591610908508,0.359633207321167,-0.282035768032074,0.4579308032989502,0.39808425307273865,0.1790642887353897,-0.10930823534727097,0.11030827462673187,0.2066304087638855,0.3309043049812317,-0.04055901989340782,-0.07791648060083389,0.49620240926742554,0.28268274664878845,-0.596753716468811,-0.1782153844833374,-0.1583426296710968,-0.06509404629468918,-0.08538887649774551,0.09793810546398163,0.2501039505004883,-0.4517057240009308,-0.11571314185857773,-0.09893151372671127,0.24495568871498108,-0.5006691217422485,-0.1296045035123825,0.082842618227005,-0.3335319459438324,0.002700432203710079,0.1521279215812683,-0.1663990020751953,0.282686322927475,0.07946502417325974,-0.028704805299639702,-0.152196004986763,-0.08232609927654266,-0.18870054185390472,-0.027790572494268417,-0.11117607355117798,-0.05246027931571007,0.12313223630189896,0.1952524036169052,0.10446345806121826,-0.20830978453159332,0.06498461216688156,0.16714803874492645,-0.14032524824142456,0.09236373007297516,-0.09647601842880249,0.020345192402601242,0.02598489075899124,0.0457865446805954,-0.2663257122039795,-0.14785081148147583,0.02399250864982605,0.2985553443431854,0.1669226437807083,0.15044783055782318,-0.13745686411857605,0.21827657520771027,-0.38866177201271057,0.14099928736686707,-0.2101040929555893,-0.21909160912036896,0.09358870983123779,-0.1105850413441658,-0.21228663623332977,0.23501481115818024,-0.10455962270498276,-0.13911651074886322,0.24514824151992798,0.2005825638771057,0.06634555757045746,-0.3018878102302551,-0.03206639736890793,-0.35422706604003906,0.032852400094270706,-0.10776286572217941,-0.1520656943321228,-0.39188581705093384,0.20178434252738953,0.2274044305086136,-0.2158256322145462,0.10894669592380524,-0.07969676703214645,-0.14285652339458466,0.0883711576461792,0.05711480975151062,-0.09658645838499069,0.0777440071105957,0.015221081674098969,-0.12783180177211761,0.0699375569820404,0.11652839928865433,0.09930640459060669,0.1234658733010292,0.035086050629615784,-0.4233391582965851,0.1637454330921173,0.1338268369436264,-0.3289465010166168,-0.04057731479406357,-0.12867970764636993,0.04046067222952843,0.3458118140697479,-0.02125750668346882,-0.14470183849334717,0.31431907415390015,0.050922755151987076,-0.10444939881563187,-0.12548545002937317,0.08191400021314621,0.3816027343273163,-0.17627868056297302,0.10730719566345215,0.3106689155101776,-0.015280229039490223,0.13378453254699707,0.2299463301897049,0.07486675679683685,0.023761890828609467,0.046200525015592575,-0.039865147322416306,-0.3332039415836334,0.1088741347193718,-0.12119832634925842,-0.2035018801689148,-0.15717540681362152,-0.007279843091964722,0.12326375395059586,0.1986013650894165,0.052193254232406616,-0.14002247154712677,0.1554950326681137,0.08845376968383789,-0.06314944475889206,-0.11585582047700882,-0.07480806112289429,-0.06660743057727814,0.2165839523077011,-0.24296151101589203,-0.04763035103678703,0.29893308877944946,0.434359073638916,-0.1824236363172531,0.4026382267475128,0.003979817498475313,0.025209685787558556,0.11421613395214081,0.16803918778896332,0.05378636345267296,-0.08440448343753815,-0.3095485270023346,-0.05710150673985481,0.14142218232154846,-0.01419410016387701,0.25018805265426636,-0.2108338475227356,0.04852358251810074,-0.0864190086722374,-0.15983404219150543,0.1578054577112198,0.11351054161787033,-0.17772777378559113,0.26759716868400574,0.1452764868736267,-0.28557080030441284,-0.011165110394358635,-0.0784657895565033,0.40266746282577515,0.20610778033733368,0.14790329337120056,-0.027885761111974716,0.11484440416097641,0.022979937493801117,0.31495314836502075,0.05012347921729088,0.07040410488843918,0.06946557760238647,0.11959216743707657,0.04301190376281738,0.35727888345718384,0.07760690897703171,0.2979564070701599,0.01341719925403595,-0.20490151643753052,-0.15635338425636292,0.12653659284114838,-0.12527243793010712,-0.11684119701385498,-0.13550646603107452,0.2779591977596283,0.1641528457403183,0.042871035635471344,-0.14993992447853088,-0.10909392684698105,0.14813309907913208,0.1435551941394806,0.03757885470986366,0.0480475090444088,-0.12049064040184021,0.07623054087162018,0.31627172231674194,-0.12891297042369843,0.0363880954682827,0.12692658603191376,0.10877855867147446,0.004709335044026375,-0.3455362021923065,-0.10931319743394852,0.011025666259229183,-0.19925063848495483,0.0753396600484848,-0.004162467084825039,-0.10245195031166077,-0.06734315305948257,-0.09619855135679245,0.04279271513223648,0.06401777267456055,0.2583716809749603,0.1579795479774475,-0.14209336042404175,-0.023070937022566795,-0.15363194048404694,-0.16108345985412598,0.13271866738796234,-0.28119856119155884,0.07059400528669357,0.0630721002817154,-0.13190385699272156,-0.032168205827474594,-0.06811520457267761,0.1400250643491745,-0.1595941036939621,-0.011672642081975937,0.008269189856946468,-0.040202900767326355,-0.10404253005981445,0.04053758457303047,0.1477743685245514,0.10064466297626495,-0.4369918704032898,-0.01034430880099535,0.08351919054985046,-0.09329845756292343,-0.044545311480760574,-0.26512983441352844,0.024369871243834496,0.006596514489501715,0.18805651366710663,-0.2217506319284439,0.1282532662153244,0.3977111876010895,0.15730790793895721,-0.004668659530580044,0.01761227287352085,0.16253072023391724,0.19800914824008942,-0.02777480147778988,0.0140871936455369,-0.024265475571155548,0.0008214769186452031,0.1344410628080368,-0.019800804555416107,0.3093259334564209,-0.2712586522102356,0.09680414199829102,0.14910010993480682,0.1319190412759781,-0.07695204764604568,-0.13696999847888947,-0.01512206345796585,0.13247574865818024,-0.0322255976498127,-0.1298913210630417,-0.2573595643043518,-0.08976825326681137,-0.1766139417886734,-0.19539932906627655,-0.23630349338054657,0.10673203319311142,0.18040743470191956,0.2730351984500885,-0.260200560092926,0.2315823882818222,0.3196372985839844,0.0606829971075058,-0.21845269203186035,-0.11302202194929123,-0.17369818687438965,0.01026957482099533,0.030853163450956345,-0.13462603092193604,-0.17954523861408234,-0.12510980665683746,0.3001417815685272,0.1860475093126297,0.18647295236587524,-0.18680822849273682,-0.1545962393283844,-0.14926646649837494,-0.10304613411426544,0.006944652646780014,-0.10896270722150803,0.1605900675058365,-0.13945595920085907,0.10873984545469284,0.33156755566596985,-0.14708928763866425,0.014176733791828156,0.19467590749263763,0.0134731475263834,-0.034512341022491455,-0.1591864973306656,0.025474295020103455,-0.2741219699382782,0.08218000829219818,0.33617842197418213,0.4802629053592682,0.04803822189569473,0.12217977643013,-0.07628937810659409,-0.028454463928937912,0.7333187460899353,-0.13650207221508026,0.07966144382953644,0.16535751521587372,0.3838880956172943,-0.15145522356033325,0.04187043011188507,-0.30833813548088074,0.07363365590572357,-0.21509799361228943,-0.7233760952949524,0.03166567161679268,0.24479269981384277,0.42010626196861267,-0.2694013714790344,0.14887674152851105,-0.12388318032026291,0.08926698565483093,-0.11097145825624466,0.11376424878835678,0.03749772161245346,0.058796241879463196,-0.03194697946310043,-0.00011128150799777359,0.24454081058502197,0.2919450104236603,-0.07437978684902191,-0.2731530964374542,-0.16964079439640045,0.0901929959654808,-0.08335024863481522,-0.04277154430747032,-0.12088208645582199,-0.13079965114593506,0.07239384949207306,-0.08698020875453949,0.1364593356847763,-0.36234742403030396,-0.0873047336935997,0.0517151914536953,-0.1991298943758011,-0.3718293607234955,-0.04755919426679611,-0.1834690123796463,-0.4402969777584076,0.020413456484675407,-0.06561855971813202,0.0332627147436142,0.004144481383264065,-0.28043439984321594,0.3702523708343506,0.01253281719982624,0.04551633074879646,-0.21019186079502106,0.024609407410025597,-0.19628651440143585,0.46625906229019165,-0.08652709424495697,-0.1419110745191574,0.4428192973136902,-0.04320518299937248,-0.3390282392501831,0.17749245464801788,-0.18918459117412567,-0.21376778185367584,0.11494651436805725,0.21548627316951752,-0.029745398089289665,-0.25705254077911377,-0.2728778123855591,-0.16614942252635956,0.3058210611343384,-0.0815029889345169,0.14276474714279175,0.06132076308131218,0.10207492858171463,0.09641880542039871,-0.20831410586833954,0.24862906336784363,0.01984286494553089,-0.2964850664138794,0.10942956805229187,0.06770211458206177,-0.01817525550723076,-0.18115633726119995,-0.047516580671072006,0.14675094187259674,-0.06370951235294342,0.10956840962171555,0.20489050447940826,0.06302918493747711,0.273999959230423,-0.20233991742134094,0.09244498610496521,0.024873005226254463,-0.10463221371173859,-0.0063256467692554,0.7443655133247375,-0.07239086925983429,-0.064980149269104,-0.14562371373176575,-0.17182403802871704,0.06626547873020172,-0.08510958403348923,-0.14362052083015442,0.07940403372049332,-0.07213887572288513,0.15026064217090607,0.1811428666114807,0.3045497238636017,-0.31807613372802734,0.2691487669944763,0.1984478235244751,0.037629999220371246,-0.18068382143974304,0.169915109872818,0.1994803547859192,0.1908593773841858,-0.037634216248989105,-0.23784400522708893,0.17531296610832214,0.2634523808956146,-0.456726998090744,-0.15843333303928375,0.08770352602005005,-0.06604515016078949,-0.1917618066072464,0.1857224404811859,0.11392076313495636,-0.1355600506067276,0.04143097624182701,0.00022312565124593675,0.22229254245758057,0.004519579000771046,0.03157354146242142,-0.20324528217315674,0.17608259618282318,-0.25832679867744446,-0.08445195108652115,0.4075983762741089,-0.04946452006697655,0.20063871145248413,0.19614502787590027,0.16640160977840424,0.11554542183876038,1.2701184749603271,-0.11375150084495544,-0.2426196038722992,-0.01443913672119379,0.33953338861465454,-0.010564876720309258,-0.034210506826639175,-0.25096529722213745,-0.0733243003487587,-0.08121185004711151,-0.272794634103775,0.22946703433990479,0.4783264398574829,0.717909038066864,0.11925304681062698,-0.05482467636466026,-0.3549301028251648,-0.10422471910715103,-0.07840117812156677,0.21031862497329712,0.28315219283103943,0.11915919929742813,-0.39498448371887207,0.2626028060913086,0.4229084551334381,-0.4135545492172241,-0.28835350275039673,0.04922069236636162,0.05994986742734909,-0.3121011555194855,0.2612830400466919,0.2630404829978943,-0.17214278876781464,-0.22749020159244537,-0.14666253328323364,0.2514634132385254,0.15477626025676727,-0.19881120324134827,-0.28725582361221313,0.4099378287792206,0.21216274797916412,0.08283436298370361,0.28798896074295044,0.26668041944503784,-0.15926465392112732,-0.16805727779865265,-0.24897071719169617,0.1220443993806839,0.6054311990737915,0.1499047577381134,0.07337643951177597,-0.11906079202890396,-0.013110809959471226,-0.0723426565527916,-0.2920885384082794,0.09134423732757568,-0.06903180480003357,-0.1448187679052353,-0.001776977558620274,0.24501556158065796,0.312254399061203,0.13488376140594482,